svm_type c_svc
kernel_type rbf
gamma 8
nr_class 5
total_sv 725
rho -0.206199 -11.6277 -2.18896 -0.680726 -7.7751 -6.55307 8.5332 20.9248 -0.265013 -10.6223
label 1 4 2 3 5
nr_sv 88 154 143 313 27
SV
32768 0 33.22790002336504 0 15:0.0681734 17:-0.985609 18:-0.97086 19:-0.985966 21:-0.992323 22:-1 23:-0.536051 24:-1 25:-1 26:-1 27:0.982609 
32768 0 2010.295442621232 0 15:0.0293576 17:-0.917197 18:-0.963955 19:-0.957433 21:-0.881179 22:-0.997914 23:-1 24:-1 25:-0.936508 26:-0.982609 27:0.982609 
0 0 0 0.2880257989089783 15:0.15121 17:-0.991031 18:-0.870167 19:-0.975982 21:-0.992822 22:-0.985687 23:-1 24:-1 25:-0.888889 26:-0.895652 27:0.895652 
0.4920550904399727 0 0 0 15:0.020882 17:-0.947857 18:-0.962333 19:-0.986173 21:-0.988073 22:-1 23:-1 24:1 25:-1 26:-1 27:0.982609 
0 14.66282923950228 206.5706378447986 2.042059462361064 15:0.15121 17:-0.991031 18:-0.78194 19:-0.936537 21:-0.989103 22:-0.993639 23:-1 24:-1 25:-0.777778 26:-1 27:0.982609 
0 32768 0 0 15:-0.118536 17:-0.876317 18:-0.987463 19:-0.997166 21:-0.974171 22:-0.981636 23:-1 24:-1 25:-0.934156 26:-0.981465 27:0.981465 
0 5962.169477573104 0 0 15:-0.112394 17:-0.865888 18:-0.986292 19:-0.996856 21:-0.972011 22:-0.980527 23:-1 24:-1 25:-0.935484 26:-0.98242 27:0.98242 
0 0 7167.503195306605 0 15:-0.102567 17:-0.942225 18:-0.981364 19:-0.996342 21:-0.991856 22:-0.966222 23:-1 24:-1 25:-0.888889 26:-0.982609 27:0.982609 
0 0 0 0.1612141439064555 15:0.0219875 17:-0.960163 18:-0.998305 19:-0.993757 21:-0.99413 22:-1 23:-1 24:1 25:-1 26:-1 27:1 
3470.356179825098 0 0 0 15:-0.00282521 17:-0.991449 18:-0.992864 19:-0.993226 21:-0.998562 22:-1 23:-1 24:-1 25:-1 26:-1 27:1 
1827.650082940328 0 0 0 15:-0.00282521 17:-0.991449 18:-0.987787 19:-0.993226 21:-0.998562 22:-1 23:-1 24:-1 25:-1 26:-1 27:1 
0 0 10339.42535557214 0 15:0.0237072 17:-0.968088 18:-0.987787 19:-0.993226 21:-0.9949 22:-0.973519 23:-1 24:-1 25:-0.916667 26:-0.982609 27:0.982609 
8599.759089605977 0 25558.54427784811 0 15:0.0167056 17:-0.944937 18:-0.972287 19:-0.992111 21:-0.992235 22:-1 23:-1 24:-1 25:-1 26:-1 27:0.982609 
0 0 289.418449647688 0 15:-0.0448348 17:-0.988946 18:-0.961661 19:-0.993822 21:-0.998767 22:-0.964375 23:-1 24:-1 25:-0.777778 26:-0.982609 27:0.982609 
0 0 0 0.06757421984247701 15:-0.134013 17:-0.991866 18:-0.997115 19:-0.995221 21:-0.998977 22:-1 23:-1 24:-0.333333 25:-1 26:-1 27:0.982609 
0.3123952337594602 0 0 0.139228290487222 15:-0.105147 17:-0.966211 18:-0.997115 19:-0.994231 21:-0.99501 22:-1 23:-1 24:0.333333 25:-1 26:-1 27:0.982609 
0 0 8765.082619943401 0 15:-0.0251812 17:-0.906768 18:-0.997115 19:-0.993241 21:-0.98422 22:-1 23:-1 24:-1 25:-1 26:-1 27:1 
516.8880829466133 0 0 0 15:0.037956 17:-0.990614 18:-0.997031 19:-0.996953 21:-0.999281 22:-0.927619 23:-1 24:-1 25:-0.888889 26:-0.983946 27:0.983946 
2292.404600693051 0 0 0 15:-0.147932 17:-0.927873 18:-0.992804 19:-0.984411 21:-0.990264 22:-1 23:-1 24:-1 25:-1 26:-1 27:0.982609 
5956.272891355856 0 0 0 15:-0.0700138 17:-0.795569 18:-0.953512 19:-0.953256 21:-0.919262 22:-1 23:-1 24:-1 25:-1 26:-1 27:0.982609 
34.21050318564006 0 0 0.2058509581647454 15:-0.176178 17:-0.975833 18:-0.92462 19:-0.983733 21:-0.996559 22:-1 23:-0.536051 24:-1 25:-1 26:-1 27:0.982609 
382.496365832301 0 0 0 15:-0.136488 17:-0.967564 18:-0.923002 19:-0.992538 21:-0.997929 22:-0.917063 23:-1 24:-1 25:-0.939394 26:-0.988043 27:0.988043 
0 0 9539.945562649749 0 15:0.00546961 17:-0.923739 18:-0.923465 19:-0.980347 21:-0.98707 22:-1 23:-1 24:-1 25:-1 26:-1 27:0.982609 
400.622536633413 0 0 0 15:-0.0698931 17:-0.802065 18:-0.982002 19:-0.970521 21:-0.903875 22:-1 23:-0.541024 24:-1 25:-1 26:-1 27:1 
0.6485682231568332 0 0 0.2986211300685835 15:0.0423781 17:-0.9927 18:-0.959752 19:-0.990851 21:-0.998758 22:-1 23:0.412018 24:-1 25:-1 26:-1 27:0.982609 
25.68046508786238 0 56.98430809801152 0.4286337802897117 15:0.0423781 17:-0.9927 18:-0.953054 19:-0.990851 21:-0.998758 22:-1 23:-0.399172 24:-1 25:-1 26:-1 27:0.982609 
80.35582713161301 0 0 0 15:-0.186464 17:-1 18:-0.946236 19:-0.9905 21:-0.999889 22:-1 23:-0.536051 24:-1 25:-1 26:-1 27:0.982609 
0.3965864044213517 0 0 0.1252995482192717 15:-0.142243 17:-0.994577 18:-0.946236 19:-0.9905 21:-0.999009 22:-1 23:-1 25:-1 26:-1 27:0.982609 
2515.694440092479 5916.842010136723 0 0 15:-0.126643 17:-0.987694 18:-0.946355 19:-0.991552 21:-0.998137 22:-1 23:-1 24:-1 25:-1 26:-1 27:1 
0 0 0 0.3379648966655417 15:0.197027 17:-0.743039 18:-0.945996 19:-0.995408 21:-0.978494 22:-0.909509 23:-0.99888 24:-1 25:-0.98999 26:-0.983868 27:0.983868 
0 0 0 0.1086939752983209 15:-0.0698931 17:-0.802065 18:-0.932001 19:-0.972624 21:-0.910599 22:-1 23:-0.536051 24:-1 25:-1 26:-1 27:1 
6144.392267962591 32768 0 0 15:-0.0972853 17:-0.848576 18:-0.918364 19:-0.992253 21:-0.979611 22:-1 23:-1 24:-1 25:-1 26:-1 27:1 
0 4584.926135605434 0 0 15:-0.131065 17:-0.96642 18:-0.975473 19:-0.997411 21:-0.996446 22:-0.953488 23:-1 24:-1 25:-0.933333 26:-0.986957 27:0.986957 
0 0 16275.1844226596 0 15:-0.0576096 17:-0.993951 18:-0.974246 19:-0.996555 21:-0.999141 22:-1 23:-1 24:-1 25:-1 26:-1 27:1 
39.90214420024292 0 0 0 15:-0.0701388 17:-0.804568 18:-0.967379 19:-0.953256 21:-0.922788 22:-1 23:-0.594639 24:-1 25:-1 26:-1 27:0.982609 
178.4757190561047 0.9500165265262704 0 0 15:-0.152684 17:-0.930128 18:-0.993389 19:-0.990977 21:-0.976025 22:-1 23:-0.536051 24:-1 25:-1 26:-1 27:0.982609 
0 16836.40413775276 0 0 15:-0.168775 17:-0.969966 18:-0.984682 19:-0.994852 21:-0.993747 22:-1 23:-1 24:-1 25:-1 26:-1 27:1 
0 19695.28415373264 0 0 15:-0.131925 17:-0.988737 18:-0.984682 19:-0.998728 21:-0.999351 22:-1 23:-1 24:-1 25:-1 26:-1 27:1 
5135.160670686684 0 27178.18827330879 1.553234150597839 15:0.011178 17:-0.94014 18:-0.938506 19:-0.969341 21:-0.932767 22:-0.952937 23:-0.999101 24:-1 25:-0.99131 26:-0.978823 27:0.978823 
0 0 97.26748594434338 1.042009667360995 15:0.011178 17:-0.939723 18:-0.862188 19:-0.820307 21:-0.60904 22:-0.983716 23:-0.86995 24:-1 25:-0.97524 26:-0.983881 27:0.983881 
0 31751.95658933833 0 0 15:-0.131065 17:-0.96642 18:-0.975473 19:-0.997411 21:-0.996446 22:-0.953488 23:-1 24:-1 25:-0.933333 26:-0.986957 27:0.986957 
0 0 6.582046826633592 0 15:0.012652 17:-0.941808 18:-0.975181 19:-0.996898 21:-0.992813 22:-0.978558 23:-1 24:-0.666667 25:-0.901235 26:-0.968696 27:0.968696 
0 0 32764.96518638322 0 15:-0.0576096 17:-0.993951 18:-0.974246 19:-0.996555 21:-0.999141 22:-1 23:-1 24:-1 25:-1 26:-1 27:1 
0 0 268.5135666484124 0 15:-0.158703 17:-0.94452 18:-0.989177 19:-0.967011 21:-0.964365 22:-1 23:-0.784827 24:-1 25:-1 26:-1 27:0.982609 
0.739893551901845 0 0 0.1391600053787578 15:-0.0698931 17:-0.793722 18:-0.96093 19:-0.988537 21:-0.953562 22:-0.99088 23:-1 24:1 25:-0.87963 26:-0.989205 27:0.989205 
1.744888472938075 0 0 0 15:-0.00847562 17:-0.981437 18:-0.997688 19:-0.993241 21:-0.997576 22:-1 23:-1 24:-0.777778 25:-1 26:-1 27:0.982609 
0.2605229374940417 0 0 0.08601181251606901 15:0.0271465 17:-0.964751 18:-0.997358 19:-0.990982 21:-0.993957 22:-1 23:-1 24:-0.333333 25:-1 26:-1 27:1 
6738.372359769119 0 0 0 15:-0.0410269 17:-0.974137 18:-0.998239 19:-0.993564 21:-0.996794 22:-1 23:-1 24:-1 25:-1 26:-1 27:0.982609 
0 22700.462971489 611.7169341411495 0 15:-0.173812 17:-0.974346 18:-0.9566 19:-0.995501 21:-0.997758 22:-0.985821 23:-1 24:-1 25:-0.888889 26:-0.997391 27:0.997391 
15.96190001485539 8.618761624485464 0 0.04202765683183851 15:-0.0698931 17:-0.793722 18:-0.931316 19:-0.908918 21:-0.685043 22:-1 23:-0.536051 24:-1 25:-1 26:-1 27:1 
0 1111.285148985005 60.76175743963959 0 15:-0.0697703 17:-0.795182 18:-0.935375 19:-0.995568 21:-0.982872 22:-0.953058 23:-1 24:-1 25:-0.917874 26:-0.984211 27:0.984211 
546.6025069663034 32768 3058.61753299629 0 15:-0.13303 17:-0.907185 18:-0.925866 19:-0.995568 21:-0.992276 22:-0.98 23:-1 24:-1 25:-0.950617 26:-0.994951 27:0.994951 
0.4413059633816286 0 0 0.1528001750977792 15:-0.0697703 17:-0.605381 18:-0.994892 19:-0.987138 21:-0.929167 22:-0.998253 23:-1 24:0.0909091 25:-0.904762 26:-0.99087 27:0.99087 
0 0 201.9681980326257 0 15:-0.167915 17:-0.970591 18:-0.950459 19:-0.995593 21:-0.998132 22:-0.925 23:-1 24:-1 25:-0.925926 26:-0.984853 27:0.984853 
0 0 0 0.03728627540508447 15:0.00503624 17:-0.933048 18:-0.93863 19:-0.989674 21:-0.990184 22:-1 23:-1 24:-0.454545 25:-1 26:-1 27:1 
0 17055.45471112333 0 0 15:-0.137207 17:-0.916362 18:-0.979538 19:-0.998481 21:-0.99449 22:-0.932362 23:-1 24:-1 25:-0.949495 26:-0.984489 27:0.984489 
0 3.125741403941624 43.16438472435949 0 15:-0.167915 17:-0.968506 18:-0.993999 19:-0.994337 21:-0.987022 22:-1 23:-0.718317 24:-1 25:-1 26:-1 27:0.982609 
0 0 7702.481738389071 0 15:-0.174057 17:-0.978934 18:-0.979682 19:-0.998495 21:-0.998692 22:-0.943452 23:-1 24:-1 25:-0.911111 26:-0.984655 27:0.984655 
0 0 1.50896025297889 0 15:0.00503624 17:-0.935968 18:-0.974251 19:-0.995964 21:-0.990609 22:-1 23:-1 24:-0.7 25:-1 26:-1 27:0.982609 
0 0 0 0.0462413746866242 15:-0.0697703 17:-0.605381 18:-0.998674 19:-0.994841 21:-0.929167 22:-0.996256 23:-1 24:-0.4 25:-0.925926 26:-0.98717 27:0.98717 
0 0 46.78966471518179 0 15:-0.0698931 17:-0.807071 18:-0.994202 19:-0.998481 21:-0.987148 22:-0.916097 23:-0.715608 24:-1 25:-0.896057 26:-0.982702 27:0.982702 
0.04652488076652675 0 0 0.08079286329620328 15:-0.139418 17:-0.940974 18:-0.99657 19:-0.994354 21:-0.993397 22:-0.99483 23:-1 24:1 25:-0.888889 26:-0.996931 27:0.996931 
0.7537148416855289 0 0 0.3004914272286469 15:0.038693 17:-0.982271 18:-0.997324 19:-0.990883 21:-0.996787 22:-1 23:1 24:-1 25:-1 26:-1 27:0.982609 
636.5207082904001 0 0 0 15:0.0354993 17:-0.98102 18:-0.939394 19:-0.997619 21:-0.996213 22:-1 23:-1 24:-1 25:-1 26:-1 27:1 
0 0 0 1.877519966587291 15:-0.0698931 17:-0.802065 18:-0.544481 19:-0.965457 21:-0.559796 22:-0.990693 23:-1 24:-1 25:-0.909572 26:-0.984388 27:0.984388 
0 0 2488.537878611283 0 15:0.0354993 17:-0.98102 18:-0.939154 19:-0.997607 21:-0.996213 22:-1 23:-1 24:-1 25:-1 26:-1 27:1 
0 0 0 0.08142628678851949 15:-0.0697703 17:-0.605381 18:-0.999277 19:-0.996606 21:-0.900285 22:-0.974973 23:-1 24:-0.6 25:-0.951143 26:-0.899226 27:0.899226 
0 119.8151562507596 32768 0 15:0.0354993 17:-0.98102 18:-0.938977 19:-0.997599 21:-0.996213 22:-1 23:-1 24:-1 25:-1 26:-1 27:1 
22.47720959896638 29.7854908312073 12.34979130652359 0 15:-0.0698931 17:-0.802065 18:-0.544579 19:-0.965218 21:-0.559796 22:-0.990693 23:-1 24:-1 25:-0.909572 26:-0.984388 27:0.984388 
551.4755262305115 32768 7111.49264523514 0 15:-0.11657 17:-0.93722 18:-0.920677 19:-0.999226 21:-0.994433 22:-0.939103 23:-1 24:-1 25:-0.988889 26:-0.982009 27:0.982009 
0 0 6040.738916736711 0 15:0.0354993 17:-0.98102 18:-0.939154 19:-0.997607 21:-0.996213 22:-1 23:-1 24:-1 25:-1 26:-1 27:1 
0 0 514.7648011394672 0 15:0.0354993 17:-0.98102 18:-0.939154 19:-0.997607 21:-0.996213 22:-1 23:-1 24:-1 25:-1 26:-1 27:1 
0.1830561593394376 0 0 0.1340816197120968 15:-0.0697703 17:-0.605381 18:-0.999281 19:-0.996618 21:-0.900285 22:-0.974973 23:-1 24:-0.272727 25:-0.951143 26:-0.899226 27:0.899226 
0 0 12347.58363866532 0 15:0.0354993 17:-0.98102 18:-0.939154 19:-0.997607 21:-0.996213 22:-1 23:-1 24:-1 25:-1 26:-1 27:1 
0 0 32768 0 15:0.0354993 17:-0.98102 18:-0.939154 19:-0.997607 21:-0.996213 22:-1 23:-1 24:-1 25:-1 26:-1 27:1 
0 0 32768 0 15:0.0354993 17:-0.98102 18:-0.939154 19:-0.997607 21:-0.996213 22:-1 23:-1 24:-1 25:-1 26:-1 27:1 
0.169750282571154 0 0.2780502261590263 0.2739181580137735 15:0.868321 17:0.795182 18:-0.990144 19:-0.989031 21:-0.426767 22:-0.986292 23:-1 24:-1 25:-0.971407 26:-0.983584 27:0.983584 
0.4065776505808481 0 0 0 15:-0.0684191 17:-0.799562 18:-0.968064 19:-0.992501 21:-0.95487 22:-0.999218 23:-1 24:0.4 25:-0.777778 26:-0.994203 27:0.994203 
0.6710023269932419 0 0 0.2702988653744566 15:-0.00773861 17:0.780999 18:-0.991697 19:-0.990749 21:-0.431292 22:-0.984998 23:-1 24:-1 25:-0.974128 26:-0.98287 27:0.98287 
0.5022974918536916 0 0 0.2023674041937942 15:0.434468 17:0.780999 18:-0.991021 19:-0.990001 21:-0.431292 22:-0.986027 23:-1 24:-1 25:-0.973214 26:-0.983423 27:0.983423 
0.569084450922693 0 0 0.228118161190645 15:-1 17:0.785588 18:-0.990144 19:-0.989031 21:-0.429828 22:-0.984943 23:-1 24:-1 25:-0.973829 26:-0.983086 27:0.983086 
0.003506192792466807 0 0 0.1689520648149689 15:-0.0684191 17:-0.799562 18:-0.968064 19:-0.992501 21:-0.95487 22:-0.999218 23:-1 24:0.4 25:-0.777778 26:-0.994203 27:0.994203 
0.2248444678481407 0 0 0 15:0.868321 17:0.795182 18:-0.991049 19:-0.990032 21:-0.426767 22:-0.984467 23:-1 24:-1 25:-0.97521 26:-0.983059 27:0.983059 
0.004923083379423282 0 0 0 15:-0.0142489 17:-0.892377 18:-0.999267 19:-0.996578 21:-0.982419 22:-0.980109 23:-1 24:-0.25 25:-0.9 26:-0.986622 27:0.986622 
0.2868488407172948 0 0 0 15:0.868321 17:0.795182 18:-0.9934 19:-0.992632 21:-0.426767 22:-0.986107 23:-1 24:-1 25:-0.972284 26:-0.983491 27:0.983491 
461.6405902945157 5616.421624340102 19996.9702986069 4.539742201494825 15:-0.0728412 17:-0.915528 18:-0.890358 19:-0.99336 21:-0.978406 22:-0.987821 23:-1 24:-1 25:-0.97037 26:-0.984028 27:0.984028 
32768 0 0 0 15:-0.0485198 17:-0.831265 18:-0.987659 19:-0.981501 21:-0.918888 22:-1 23:-1 24:-1 25:-1 26:-1 27:0.982609 
0.5342893609436339 0 0 0.2156058153984196 15:-0.671048 17:0.780999 18:-0.991021 19:-0.990001 21:-0.431292 22:-0.985903 23:-1 24:-1 25:-0.973451 26:-0.983058 27:0.983058 
-0 0 32768 0 15:0.0160914 17:-0.941808 18:-0.630229 19:-0.995304 21:-0.989766 22:-1 23:-1 24:-1 25:-1 26:-1 27:1 
-0 0 6495.239539229175 0 15:0.0162142 17:-0.94452 18:-0.747201 19:-0.983966 21:-0.960808 22:-0.93703 23:-1 24:-1 25:-0.980952 26:-0.981647 27:0.981647 
-11071.92103934991 0 0 0 15:0.0681734 17:-0.985609 18:-0.964612 19:-0.982885 21:-0.992323 22:-1 23:-0.536051 24:-1 25:-1 26:-1 27:0.982609 
-0 0 20532.81029183016 0 15:0.0160914 17:-0.939723 18:-0.660291 19:-0.94837 21:-0.912701 22:-1 23:-1 24:-1 25:-1 26:-1 27:0.982609 
-0 0 22574.72163631369 0 15:0.0162142 17:-0.94452 18:-0.613318 19:-0.975145 21:-0.960808 22:-0.93703 23:-1 24:-1 25:-0.980952 26:-0.981647 27:0.981647 
-1112.532427160557 0 0 0 15:0.0293576 17:-0.917197 18:-0.988895 19:-0.986806 21:-0.881179 22:-0.997914 23:-1 24:-1 25:-0.936508 26:-0.982609 27:0.982609 
-2561.828565135821 0 0 0 15:0.0154772 17:-0.945771 18:-0.960328 19:-0.993902 21:-0.961662 22:-0.939774 23:-1 24:-1 25:-0.979644 26:-0.981577 27:0.981577 
-0 32768 24090.28706106812 0 15:-0.183024 17:-0.985817 18:-0.659497 19:-0.997879 21:-0.997956 22:-1 23:-1 24:-1 25:-1 26:-1 27:0.982609 
-0 0 12154.58157945133 0 15:-0.114114 17:-0.868808 18:-0.6559 19:-0.948787 21:-0.776106 22:-1 23:-1 24:-1 25:-1 26:-1 27:0.982609 
-0 1508.9664547985 32768 0 15:-0.114114 17:-0.869225 18:-0.625449 19:-0.976455 21:-0.895982 22:-0.986386 23:-1 24:-1 25:-0.972222 26:-0.982609 27:0.982609 
-0 0 0 3.179596703302825 15:0.0293576 17:-0.917197 18:-0.963955 19:-0.957433 21:-0.881179 22:-0.997914 23:-1 24:-1 25:-0.936508 26:-0.982609 27:0.982609 
-0 0 8318.105229461313 0 15:0.0154772 17:-0.945771 18:-0.924645 19:-0.987919 21:-0.961662 22:-0.939774 23:-1 24:-1 25:-0.979644 26:-0.981577 27:0.981577 
-0 0 32768 0 15:0.0160914 17:-0.941808 18:-0.776853 19:-0.997426 21:-0.989766 22:-1 23:-1 24:-1 25:-1 26:-1 27:1 
-0 0 32768 0 15:-0.114114 17:-0.869225 18:-0.738874 19:-0.976455 21:-0.895982 22:-0.986386 23:-1 24:-1 25:-0.972222 26:-0.982609 27:0.982609 
-7548.658616481101 0 0 0 15:-0.0698931 17:-0.793722 18:-0.978407 19:-0.968058 21:-0.895189 22:-1 23:-1 24:-1 25:-1 26:-1 27:0.982609 
-0 0 1790.039231104475 0 15:-0.114114 17:-0.868808 18:-0.626769 19:-0.891974 21:-0.776106 22:-1 23:-1 24:-1 25:-1 26:-1 27:0.982609 
-0 0 9258.85275293489 0 15:0.0160914 17:-0.939723 18:-0.68315 19:-0.910089 21:-0.912701 22:-1 23:-1 24:-1 25:-1 26:-1 27:0.982609 
-19.46014088857151 0 174.2751745528464 0 15:-0.0698931 17:-0.793722 18:-0.56841 19:-0.968058 21:-0.895189 22:-1 23:-1 24:-1 25:-1 26:-1 27:0.982609 
-11.4684068836208 0 553.1019990899752 0 15:-0.0698931 17:-0.793722 18:-0.56841 19:-0.968058 21:-0.895189 22:-1 23:-1 24:-1 25:-1 26:-1 27:0.982609 
-0 18468.41410238047 28508.75670342902 0 15:-0.185481 17:-0.989989 18:-0.731195 19:-0.993604 21:-0.998746 22:-1 23:-1 24:-1 25:-1 26:-1 27:0.982609 
-0 0 0 135.2604072618182 15:-0.0698931 17:-0.793722 18:-0.564038 19:-0.971777 21:-0.895189 22:-1 23:-1 24:-1 25:-1 26:-1 27:0.982609 
-0 0 0 26631.95016501689 15:-0.0698931 17:-0.793722 18:-0.564038 19:-0.971777 21:-0.895189 22:-1 23:-1 24:-1 25:-1 26:-1 27:0.982609 
-0 5138.038620488311 0 0 15:-0.185481 17:-0.989989 18:-0.619617 19:-0.997309 21:-0.998746 22:-1 23:-1 24:-1 25:-1 26:-1 27:0.982609 
-0 0 0 32768 15:-0.0698931 17:-0.793722 18:-0.546218 19:-0.986937 21:-0.895189 22:-1 23:-1 24:-1 25:-1 26:-1 27:0.982609 
-0 0 0 32768 15:-0.0698931 17:-0.793722 18:-0.546218 19:-0.986937 21:-0.895189 22:-1 23:-1 24:-1 25:-1 26:-1 27:0.982609 
-0 9848.50020614214 0 0 15:-0.183024 17:-0.985817 18:-0.674496 19:-0.998301 21:-0.997956 22:-1 23:-1 24:-1 25:-1 26:-1 27:0.982609 
-0 0 32768 0 15:-0.114114 17:-0.868808 18:-0.633608 19:-0.998396 21:-0.982329 22:-1 23:-1 24:-1 25:-1 26:-1 27:1 
-0 30782.76380212539 32768 0 15:-0.114114 17:-0.868808 18:-0.631284 19:-0.996126 21:-0.964397 22:-1 23:-1 24:-1 25:-1 26:-1 27:1 
-4.134318810083328 0 0 0 15:0.0160914 17:-0.939723 18:-0.915466 19:-0.980996 21:-0.927411 22:-1 23:-0.643116 24:-1 25:-1 26:-1 27:0.982609 
-0 0 0 475.1944214673636 15:0.0162142 17:-0.94452 18:-0.785154 19:-0.989128 21:-0.960808 22:-0.93703 23:-1 24:-1 25:-0.980952 26:-0.981647 27:0.981647 
-54.16255481073811 0 19334.40455848431 0 15:-0.114114 17:-0.869225 18:-0.726481 19:-0.991673 21:-0.961529 22:-0.962889 23:-1 24:-1 25:-0.978052 26:-0.982318 27:0.982318 
-0 0 32768 0 15:-0.183024 17:-0.985817 18:-0.696861 19:-0.998091 21:-0.997956 22:-1 23:-1 24:-1 25:-1 26:-1 27:0.982609 
-0 0 32768 0 15:-0.114114 17:-0.868808 18:-0.64279 19:-0.998194 21:-0.982329 22:-1 23:-1 24:-1 25:-1 26:-1 27:1 
-0 32768 32768 0 15:-0.114114 17:-0.868808 18:-0.640261 19:-0.995724 21:-0.964397 22:-1 23:-1 24:-1 25:-1 26:-1 27:1 
-0 115.2666467586074 1602.111172237323 0 15:-0.114114 17:-0.868808 18:-0.606884 19:-0.96978 21:-0.776106 22:-1 23:-1 24:-1 25:-1 26:-1 27:0.982609 
-0 0 3585.592877994262 0 15:0.0160914 17:-0.939723 18:-0.907909 19:-0.979251 21:-0.927411 22:-1 23:-0.643116 24:-1 25:-1 26:-1 27:0.982609 
-0 0 18325.01993586659 0 15:-0.18413 17:-0.987694 18:-0.65328 19:-0.991588 21:-0.994541 22:-1 23:-0.536051 24:-1 25:-1 26:-1 27:0.982609 
-0 12484.10338421198 32768 0 15:-0.114114 17:-0.868808 18:-0.655316 19:-0.997553 21:-0.982329 22:-1 23:-1 24:-1 25:-1 26:-1 27:1 
-0 5306.844737470837 10539.17757149304 0 15:-0.114114 17:-0.868808 18:-0.653192 19:-0.997553 21:-0.982329 22:-0.996042 23:-1 24:-1 25:-0.944444 26:-0.998201 27:0.998201 
-0 0 32768 0 15:-0.114114 17:-0.868808 18:-0.651068 19:-0.997553 21:-0.982329 22:-1 23:-1 24:-1 25:-1 26:-1 27:1 
-0 0 16695.72806124827 0 15:-0.114114 17:-0.869225 18:-0.587698 19:-0.982511 21:-0.895982 22:-0.986386 23:-1 24:-1 25:-0.972222 26:-0.982609 27:0.982609 
-8693.349738924228 0 0 0 15:0.0691561 17:-0.985609 18:-0.978315 19:-0.989643 21:-0.992323 22:-1 23:-0.536051 24:-1 25:-1 26:-1 27:0.982609 
-1900.691986682838 0 4269.894659510956 0 15:0.0691561 17:-0.984774 18:-0.972783 19:-0.995478 21:-0.996339 22:-1 23:-1 24:-1 25:-1 26:-1 27:1 
-2491.452395203191 0 0 0 15:0.0154772 17:-0.945771 18:-0.914104 19:-0.984845 21:-0.961662 22:-0.939774 23:-1 24:-1 25:-0.979644 26:-0.981577 27:0.981577 
-0 0 32768 0 15:-0.114114 17:-0.869225 18:-0.61341 19:-0.991673 21:-0.961529 22:-0.962889 23:-1 24:-1 25:-0.978052 26:-0.982318 27:0.982318 
-0 434.7401031927154 0 0 15:-0.115833 17:-0.872145 18:-0.600072 19:-0.986139 21:-0.939067 22:-0.952732 23:-1 24:-1 25:-0.978187 26:-0.982319 27:0.982319 
-0 0 32768 0 15:-0.114114 17:-0.868808 18:-0.719163 19:-0.948787 21:-0.776106 22:-1 23:-1 24:-1 25:-1 26:-1 27:0.982609 
-0.8080711273796541 0 43.03169912426645 0 15:0.0293576 17:-0.917197 18:-0.963955 19:-0.957433 21:-0.881179 22:-0.997914 23:-1 24:-1 25:-0.936508 26:-0.982609 27:0.982609 
-0 0 0.03231882142639707 0 15:0.0154772 17:-0.945771 18:-0.874843 19:-0.979568 21:-0.961662 22:-0.939774 23:-1 24:-1 25:-0.979644 26:-0.981577 27:0.981577 
-0 0 32768 0 15:-0.114114 17:-0.869225 18:-0.619665 19:-0.976455 21:-0.895982 22:-0.986216 23:-1 24:-1 25:-0.972565 26:-0.982318 27:0.982318 
-12799.69107767388 0 0 0 15:0.0681734 17:-0.985609 18:-0.97086 19:-0.985966 21:-0.992323 22:-1 23:-0.536051 24:-1 25:-1 26:-1 27:0.982609 
-31944.91375647626 0 2976.426639220116 82.50961329574359 15:0.0293576 17:-0.917197 18:-0.963955 19:-0.957433 21:-0.881179 22:-0.997914 23:-1 24:-1 25:-0.936508 26:-0.982609 27:0.982609 
-0 0 4726.034617790421 0 15:0.0154772 17:-0.945771 18:-0.874843 19:-0.979568 21:-0.961662 22:-0.939774 23:-1 24:-1 25:-0.979644 26:-0.981577 27:0.981577 
-0 1969.419588676527 19958.31893485418 0 15:-0.146788 17:-0.937637 18:-0.770413 19:-0.968828 21:-0.909782 22:-1 23:-1 24:-1 25:-1 26:-1 27:1 
-0 0 2578.143539546903 0 15:-0.111166 17:-0.879237 18:-0.746249 19:-0.988185 21:-0.932758 22:-1 23:-0.536051 24:-1 25:-1 26:-1 27:0.982609 
-0 0 32768 0 15:0.00933546 17:-0.932423 18:-0.91861 19:-0.966536 21:-0.895445 22:-1 23:-1 24:-1 25:-1 26:-1 27:1 
-0 0 0 22894.34417587132 15:-0.0698931 17:-0.797893 18:-0.543901 19:-0.989204 21:-0.89729 22:-1 23:-1 24:-1 25:-1 26:-1 27:0.982609 
-90.2619887243164 0 0 0 15:-0.0698931 17:-0.804151 18:-0.97745 19:-0.984724 21:-0.933715 22:-1 23:-0.536051 24:-1 25:-1 26:-1 27:0.982609 
-0 924.8491975656636 24867.76231269075 0 15:-0.106744 17:-0.870894 18:-0.564717 19:-0.95231 21:-0.866399 22:-1 23:-1 24:-1 25:-1 26:-1 27:1 
-0 0 3097.15965211675 0 15:0.0109323 17:-0.943894 18:-0.959498 19:-0.966657 21:-0.958419 22:-1 23:-0.565048 24:-1 25:-1 26:-1 27:0.982609 
-0 0 6651.233097818273 0 15:0.0109323 17:-0.943894 18:-0.897116 19:-0.984724 21:-0.980648 22:-1 23:-0.536051 24:-1 25:-1 26:-1 27:0.982609 
-0 0 270.1230548487785 0 15:0.0109323 17:-0.941808 18:-0.806264 19:-0.984724 21:-0.979947 22:-1 23:-0.552049 24:-1 25:-1 26:-1 27:0.982609 
-0 0 2866.725094539901 0 15:-0.123941 17:-0.898008 18:-0.918924 19:-0.9904 21:-0.982749 22:-1 23:-1 24:-1 25:-1 26:-1 27:0.982609 
-0 0 11404.95046095914 0 15:0.00994964 17:-0.979351 18:-0.703017 19:-0.988689 21:-0.995767 22:-1 23:-1 24:-1 25:-1 26:-1 27:0.982609 
-4055.193095556212 0 22931.40587846873 0 15:0.0152315 17:-0.940348 18:-0.988163 19:-0.985817 21:-0.979457 22:-1 23:-1 24:-1 25:-1 26:-1 27:1 
-0 0 10802.30799948198 0 15:-0.113843 17:-0.86999 18:-0.843494 19:-0.980347 21:-0.978044 22:-1 23:-1 24:-1 25:-1 26:-1 27:0.982609 
-0 0 337.0267786758738 0 15:0.0152094 17:-0.940277 18:-0.560128 19:-0.797483 21:-0.896119 22:-1 23:-1 24:-1 25:-1 26:-1 27:0.982609 
-0 0 29.27327295705236 3.835385469694483 15:0.0152094 17:-0.940277 18:-0.00541594 19:-0.831347 21:-0.913476 22:-1 23:-1 24:-1 25:-1 26:-1 27:0.982609 
-0 0 1290.699666118291 0 15:0.14621 17:-0.97542 18:-0.79773 19:-0.981702 21:-0.99605 22:-1 23:-1 24:-1 25:-1 26:-1 27:1 
-11.39908630598666 9.235840999297746 0 6.899478385658315 15:-0.070016 17:-0.793931 18:-0.985047 19:-0.970533 21:-0.84281 22:-0.999887 23:-0.679142 24:-1 25:-0.777778 26:-0.947826 27:0.947826 
-0 0 10098.71517573445 0 15:0.0160914 17:-0.939723 18:-0.95237 19:-0.944865 21:-0.912701 22:-1 23:-0.536051 24:-1 25:-1 26:-1 27:0.982609 
-0 0 2619.735338602161 0 15:0.0160914 17:-0.939723 18:-0.7851 19:-0.944865 21:-0.912701 22:-1 23:-0.536051 24:-1 25:-1 26:-1 27:0.982609 
-91.44238701647689 4.180515734137176 0 3.399954619136552 15:-0.286328 17:-0.977266 18:-0.969432 19:-0.940401 21:-0.962435 22:-1 23:-0.536051 24:-1 25:-1 26:-1 27:0.982609 
-26.39371411703198 0 0 4.18024095012838 15:0.146297 17:-0.977266 18:-0.969432 19:-0.940401 21:-0.962435 22:-1 23:-0.536051 24:-1 25:-1 26:-1 27:0.982609 
-0 0 32768 0 15:-0.108709 17:-0.872145 18:-0.683435 19:-0.944152 21:-0.759855 22:-1 23:-1 24:-1 25:-1 26:-1 27:0.982609 
-0 0 713.4916414403813 0 15:0.00933546 17:-0.932423 18:-0.890322 19:-0.954769 21:-0.895445 22:-1 23:-1 24:-1 25:-1 26:-1 27:1 
-0.5812141444520894 0.6622159113383719 0.2355543072973191 0.001260809405084819 15:-0.0698931 17:-0.797893 18:-0.593959 19:-0.852531 21:-0.0105914 22:-1 23:-1 24:-1 25:-1 26:-1 27:1 
-117.9588771293958 0 0 0 15:0.12087 17:-0.929085 18:-0.900374 19:-0.945864 21:-0.869131 22:-1 23:-1 24:-1 25:-1 26:-1 27:0.982609 
-10871.3494060264 0 0 0 15:-0.0347623 17:-0.874231 18:-0.993389 19:-0.990977 21:-0.957252 22:-1 23:-1 24:-1 25:-1 26:-1 27:0.982609 
-7919.459736517094 32768 11068.25375307795 0 15:-0.116325 17:-0.88758 18:-0.928587 19:-0.997759 21:-0.988703 22:-1 23:-1 24:-1 25:-1 26:-1 27:1 
-0 104.9561396844365 2527.948111221383 0 15:-0.0599435 17:-0.965377 18:-0.632408 19:-0.983388 21:-0.978151 22:-1 23:-0.622771 24:-1 25:-1 26:-1 27:0.982609 
-1.477337669890184 0 0 9.533321620750066 15:-0.0734553 17:-0.813119 18:-0.54011 19:-0.986133 21:-0.90496 22:-0.99069 23:-0.997931 24:1 25:-0.92 26:-0.990409 27:0.990409 
-2318.242878397135 0 0 0 15:-0.0698931 17:-0.797893 18:-0.99774 19:-0.992103 21:-0.943055 22:-1 23:-1 24:-1 25:-1 26:-1 27:0.982609 
-0 36.90402422707174 1351.516897780974 0 15:-0.111166 17:-0.879237 18:-0.838308 19:-0.983882 21:-0.932758 22:-1 23:-0.536051 24:-1 25:-1 26:-1 27:0.982609 
-0 0 32768 0 15:-0.108709 17:-0.872145 18:-0.694656 19:-0.944152 21:-0.759855 22:-1 23:-1 24:-1 25:-1 26:-1 27:0.982609 
-0 0 2188.719253561682 0 15:0.00933546 17:-0.932423 18:-0.890322 19:-0.954769 21:-0.895445 22:-1 23:-1 24:-1 25:-1 26:-1 27:1 
-1.342388373553803 2.398963426597191 4.093809450591348 9.861896579481849 15:-0.0698931 17:-0.797893 18:-0.593959 19:-0.852531 21:-0.0105914 22:-1 23:-1 24:-1 25:-1 26:-1 27:1 
-0 15.34068447291755 40.46132554872303 12.49776388554243 15:-0.0698931 17:-0.793722 18:-0.566089 19:-0.973378 21:-0.895189 22:-1 23:-0.549042 24:-1 25:-1 26:-1 27:1 
-0 0 32768 0 15:-0.125046 17:-0.891542 18:-0.613138 19:-0.990982 21:-0.981664 22:-0.995229 23:-1 24:-1 25:-0.955556 26:-0.991004 27:0.991004 
-0 0 32768 0 15:-0.165827 17:-0.960788 18:-0.604986 19:-0.992918 21:-0.994686 22:-1 23:-1 24:-1 25:-1 26:-1 27:0.982609 
-0 74.36260125299911 16637.38818554141 0 15:-0.0571183 17:-0.960997 18:-0.604986 19:-0.992918 21:-0.994714 22:-1 23:-1 24:-1 25:-1 26:-1 27:0.982609 
-0 0 273.3732027754948 0 15:0.00896696 17:-0.931797 18:-0.606529 19:-0.961931 21:-0.952909 22:-1 23:-0.536051 24:-1 25:-1 26:-1 27:0.982609 
-355.5455410746444 54.1949226029714 0 0 15:-0.0698931 17:-0.793722 18:-0.978049 19:-0.969063 21:-0.891686 22:-1 23:-0.539224 24:-1 25:-1 26:-1 27:0.982609 
-0 821.1953287199144 1027.433692846187 0 15:-0.190517 17:-0.997289 18:-0.754119 19:-0.946979 21:-0.996703 22:-0.965092 23:-1 24:-1 25:-0.968254 26:-0.983399 27:0.983399 
-17431.5286381263 0 0 0 15:-0.0465545 17:-0.841694 18:-0.967193 19:-0.966847 21:-0.928345 22:-1 23:-1 24:-1 25:-1 26:-1 27:0.982609 
-0 32768 32768 0 15:-0.114114 17:-0.893837 18:-0.864284 19:-0.996114 21:-0.985084 22:-1 23:-1 24:-1 25:-1 26:-1 27:1 
-193.3127353828438 0 32768 0 15:0.00503624 17:-0.935968 18:-0.920513 19:-0.966074 21:-0.929723 22:-0.967044 23:-1 24:-1 25:-0.971162 26:-0.982385 27:0.982385 
-0 0 8095.634997848014 0 15:-0.114114 17:-0.883408 18:-0.727446 19:-0.984257 21:-0.935712 22:-1 23:-1 24:-1 25:-1 26:-1 27:0.982609 
-0 0 0 3.0441295703548 15:-0.190517 17:-0.997289 18:-0.921036 19:-0.983326 21:-0.996703 22:-0.965092 23:-1 24:-1 25:-0.968254 26:-0.983399 27:0.983399 
-0 0 32768 0 15:-0.114114 17:-0.883408 18:-0.690219 19:-0.987422 21:-0.935712 22:-1 23:-1 24:-1 25:-1 26:-1 27:0.982609 
-0 0 191.8861332261351 0 15:-0.114114 17:-0.882991 18:-0.616836 19:-0.935951 21:-0.683726 22:-1 23:-1 24:-1 25:-1 26:-1 27:0.982609 
-1334.599813958372 103.0017606277584 1971.764941582796 0 15:-0.190517 17:-0.997289 18:-0.94794 19:-0.989185 21:-0.996703 22:-0.965092 23:-1 24:-1 25:-0.968254 26:-0.983399 27:0.983399 
-4753.357301337329 0 0 0 15:-0.0465545 17:-0.841694 18:-0.993474 19:-0.992801 21:-0.922052 22:-1 23:-1 24:-1 25:-1 26:-1 27:0.982609 
-0 0 18418.39366389342 0 15:0.00503624 17:-0.935134 18:-0.977031 19:-0.976077 21:-0.898009 22:-1 23:-1 24:-1 25:-1 26:-1 27:0.982609 
-46.90959237320891 0 963.9017666579128 46.55229935044672 15:0.00503624 17:-0.929294 18:-0.890621 19:-0.921206 21:-0.641087 22:-1 23:-1 24:-1 25:-1 26:-1 27:0.982609 
-0 0 32768 0 15:-0.114114 17:-0.883408 18:-0.592776 19:-0.994517 21:-0.977636 22:-1 23:-1 24:-1 25:-1 26:-1 27:1 
-0 0 1873.058179588244 0 15:0.00503624 17:-0.935134 18:-0.953394 19:-0.951482 21:-0.898009 22:-1 23:-1 24:-1 25:-1 26:-1 27:0.982609 
-0 0 32768 0 15:0.00503624 17:-0.935134 18:-0.953082 19:-0.951158 21:-0.898009 22:-1 23:-1 24:-1 25:-1 26:-1 27:0.982609 
-0 0 2033.570869891191 0 15:-0.111657 17:-0.948483 18:-0.746742 19:-0.919255 21:-0.92255 22:-1 23:-0.536051 24:-1 25:-1 26:-1 27:0.982609 
-0 0 5702.151198502124 0 15:-0.114114 17:-0.882991 18:-0.660488 19:-0.914414 21:-0.683726 22:-1 23:-1 24:-1 25:-1 26:-1 27:0.982609 
-0 0 25898.31054303997 0 15:-0.114114 17:-0.883408 18:-0.691996 19:-0.984152 21:-0.935712 22:-1 23:-1 24:-1 25:-1 26:-1 27:0.982609 
-0 0 32768 0 15:-0.114114 17:-0.883408 18:-0.597473 19:-0.994877 21:-0.977636 22:-1 23:-1 24:-1 25:-1 26:-1 27:1 
-0 0 375.1144690829793 0 15:-0.0316914 17:-1 18:-0.991025 19:-0.988973 21:-0.998592 22:-1 23:-1 24:-1 25:-1 26:-1 27:0.982609 
-0 0 2253.344706667905 0 15:0.011178 17:-0.939723 18:-0.929639 19:-0.978181 21:-0.912701 22:-1 23:-1 24:-1 25:-1 26:-1 27:1 
-416.2146381689545 0 32768 0 15:-0.0514679 17:-0.971008 18:-0.98499 19:-0.99752 21:-0.994132 22:-1 23:-0.536051 24:-1 25:-1 26:-1 27:0.982609 
-0 0 32768 0 15:-0.115342 17:-0.879237 18:-0.847993 19:-0.988982 21:-0.910716 22:-1 23:-1 24:-1 25:-1 26:-1 27:0.982609 
-0 329.3388683124829 0 0 15:-0.115342 17:-0.879237 18:-0.80334 19:-0.948362 21:-0.599373 22:-1 23:-1 24:-1 25:-1 26:-1 27:0.982609 
-0 0 0 104.2651439487226 15:-0.0698931 17:-0.802065 18:-0.565626 19:-0.988713 21:-0.851198 22:-1 23:-1 24:-1 25:-1 26:-1 27:1 
-0 1143.57565766289 0 0 15:-0.115342 17:-0.879237 18:-0.99097 19:-0.98875 21:-0.90865 22:-1 23:-1 24:-1 25:-1 26:-1 27:0.982609 
-11347.02483804877 0 0 0 15:-0.0316914 17:-1 18:-0.991062 19:-0.989019 21:-0.998592 22:-1 23:-1 24:-1 25:-1 26:-1 27:0.982609 
-0 65.9489930807684 0 0 15:-0.115342 17:-0.879237 18:-0.594254 19:-0.935535 21:-0.499496 22:-1 23:-1 24:-1 25:-1 26:-1 27:0.982609 
-0 0 18216.4674862332 0 15:-0.115342 17:-0.879237 18:-0.837321 19:-0.988982 21:-0.910716 22:-1 23:-1 24:-1 25:-1 26:-1 27:0.982609 
-0 0 22431.7204928287 0 15:0.011178 17:-0.939723 18:-0.689681 19:-0.978198 21:-0.912701 22:-1 23:-1 24:-1 25:-1 26:-1 27:0.982609 
-0 0 0 4036.937517300287 15:-0.0698931 17:-0.802065 18:-0.565626 19:-0.988713 21:-0.851198 22:-1 23:-1 24:-1 25:-1 26:-1 27:1 
-0 0 1953.673394110388 0 15:-0.0316914 17:-1 18:-0.991025 19:-0.988973 21:-0.998592 22:-1 23:-1 24:-1 25:-1 26:-1 27:0.982609 
-0 0 1075.606066943762 0 15:0.011178 17:-0.939723 18:-0.929639 19:-0.978181 21:-0.912701 22:-1 23:-1 24:-1 25:-1 26:-1 27:1 
-0 0 482.3155430540116 0 15:-0.0316914 17:-1 18:-0.991025 19:-0.988973 21:-0.998592 22:-1 23:-1 24:-1 25:-1 26:-1 27:0.982609 
-0 0 32768 0 15:-0.115342 17:-0.879237 18:-0.839096 19:-0.988973 21:-0.910716 22:-1 23:-1 24:-1 25:-1 26:-1 27:0.982609 
-0 0 2055.152113143216 0 15:0.011178 17:-0.939723 18:-0.929639 19:-0.978181 21:-0.912701 22:-1 23:-1 24:-1 25:-1 26:-1 27:1 
-0 0 21882.30193243715 0 15:0.011178 17:-0.939723 18:-0.635168 19:-0.982626 21:-0.930213 22:-1 23:-1 24:-1 25:-1 26:-1 27:0.982609 
-0 1174.706979371231 370.1477219721229 0 15:-0.0698931 17:-0.802065 18:-0.565757 19:-0.988669 21:-0.851198 22:-1 23:-1 24:-1 25:-1 26:-1 27:1 
-0 0 141.37941470577 0 15:-0.0316914 17:-1 18:-0.991025 19:-0.988973 21:-0.998592 22:-1 23:-1 24:-1 25:-1 26:-1 27:0.982609 
-0 153.9973686062061 237.586206466979 0 15:-0.11657 17:-0.900094 18:-0.962112 19:-0.96523 21:-0.774868 22:-1 23:-1 24:-1 25:-1 26:-1 27:0.982609 
-0 2350.93988792203 32768 0 15:-0.0509765 17:-0.996871 18:-0.913126 19:-0.998327 21:-0.999472 22:-1 23:-1 24:-1 25:-1 26:-1 27:0.982609 
-0 0 392.0079405470576 0 15:0.011178 17:-0.939723 18:-0.929639 19:-0.978181 21:-0.912701 22:-1 23:-1 24:-1 25:-1 26:-1 27:1 
-0 0 225.1936370657584 0 15:-0.0316914 17:-1 18:-0.991025 19:-0.988973 21:-0.998592 22:-1 23:-1 24:-1 25:-1 26:-1 27:0.982609 
-0 0 254.0537212605915 0 15:0.011178 17:-0.939723 18:-0.929639 19:-0.978181 21:-0.912701 22:-1 23:-1 24:-1 25:-1 26:-1 27:1 
-0 0 123.271821897943 0 15:-0.0316914 17:-1 18:-0.991025 19:-0.988973 21:-0.998592 22:-1 23:-1 24:-1 25:-1 26:-1 27:0.982609 
-0 0 6963.151784106231 0 15:-0.115342 17:-0.879237 18:-0.737503 19:-0.948321 21:-0.599373 22:-1 23:-1 24:-1 25:-1 26:-1 27:0.982609 
-0 0 135.6918787170899 0 15:0.011178 17:-0.939723 18:-0.929639 19:-0.978181 21:-0.912701 22:-1 23:-1 24:-1 25:-1 26:-1 27:1 
-0 0 470.4430355225086 0 15:-0.0316914 17:-1 18:-0.991025 19:-0.988973 21:-0.998592 22:-1 23:-1 24:-1 25:-1 26:-1 27:0.982609 
-0 0 15404.6746538463 0 15:-0.115342 17:-0.879237 18:-0.869911 19:-0.988973 21:-0.910716 22:-1 23:-1 24:-1 25:-1 26:-1 27:0.982609 
-0 0 737.7950626470189 0 15:-0.115342 17:-0.879237 18:-0.769178 19:-0.948321 21:-0.599373 22:-1 23:-1 24:-1 25:-1 26:-1 27:0.982609 
-0 0 480.6526680445246 0 15:0.011178 17:-0.939723 18:-0.929639 19:-0.978181 21:-0.912701 22:-1 23:-1 24:-1 25:-1 26:-1 27:1 
-0 0 8529.604912825093 0 15:-0.0316914 17:-1 18:-0.991025 19:-0.988973 21:-0.998592 22:-1 23:-1 24:-1 25:-1 26:-1 27:0.982609 
-0 0 25512.10364367902 0 15:-0.115342 17:-0.879237 18:-0.699444 19:-0.988973 21:-0.910716 22:-1 23:-1 24:-1 25:-1 26:-1 27:0.982609 
-0 0 24087.43746011252 0 15:0.011178 17:-0.939723 18:-0.929639 19:-0.978181 21:-0.912701 22:-1 23:-1 24:-1 25:-1 26:-1 27:1 
-0 0 19624.27964043267 0 15:-0.114114 17:-0.868808 18:-0.870789 19:-0.986446 21:-0.943475 22:-1 23:-1 24:-1 25:-1 26:-1 27:0.982609 
-0 0 32768 0 15:0.0125292 17:-0.934091 18:-0.54879 19:-0.9668 21:-0.931162 22:-0.97586 23:-1 24:-1 25:-0.973995 26:-0.983431 27:0.983431 
-0 223.7543693569579 12107.66371916564 0 15:-0.114728 17:-0.869851 18:-0.698591 19:-0.937427 21:-0.748945 22:-0.989903 23:-0.743957 24:-1 25:-0.96115 26:-0.98399 27:0.98399 
-2793.518448147091 356.2817177404136 366.4463649314315 0 15:-0.0698931 17:-0.793722 18:-0.977043 19:-0.980828 21:-0.895189 22:-1 23:-1 24:-1 25:-1 26:-1 27:0.982609 
-494.5785521047461 0 32768 0 15:0.0125292 17:-0.938263 18:-0.865415 19:-0.985236 21:-0.975172 22:-1 23:-1 24:-1 25:-1 26:-1 27:0.982609 
-0 0 11734.74654680975 0 15:-0.110183 17:-0.868808 18:-0.810306 19:-0.926263 21:-0.75369 22:-1 23:-1 24:-1 25:-1 26:-1 27:0.982609 
-0 1313.163731173523 0 0 15:-0.114114 17:-0.868808 18:-0.660337 19:-0.974097 21:-0.894161 22:-1 23:-1 24:-1 25:-1 26:-1 27:0.982609 
-0 -0 32768 0 15:-0.114114 17:-0.868808 18:-0.80414 19:-0.99723 21:-0.97934 22:-1 23:-1 24:-1 25:-1 26:-1 27:1 
-0 -0 32768 0 15:-0.114114 17:-0.868808 18:-0.737823 19:-0.99723 21:-0.97934 22:-1 23:-1 24:-1 25:-1 26:-1 27:1 
-0 -32768 164.5893529447304 0 15:-0.183024 17:-0.985817 18:-0.659658 19:-0.997598 21:-0.997956 22:-1 23:-1 24:-1 25:-1 26:-1 27:0.982609 
-0 -0 27230.38063700881 0 15:-0.114114 17:-0.868808 18:-0.86884 19:-0.996833 21:-0.97934 22:-1 23:-1 24:-1 25:-1 26:-1 27:1 
-0 -0 32768 0 15:-0.114114 17:-0.868808 18:-0.818577 19:-0.996833 21:-0.97934 22:-1 23:-1 24:-1 25:-1 26:-1 27:1 
-0 -0 32768 0 15:-0.114114 17:-0.868808 18:-0.771024 19:-0.996833 21:-0.97934 22:-1 23:-1 24:-1 25:-1 26:-1 27:1 
-0 -915.7655492165795 0 0 15:-0.114114 17:-0.868808 18:-0.73001 19:-0.993 21:-0.958419 22:-0.999152 23:-1 24:-1 25:-0.888889 26:-0.99936 27:0.99936 
-0 -0 32768 0 15:-0.114114 17:-0.868808 18:-0.710204 19:-0.996833 21:-0.97934 22:-1 23:-1 24:-1 25:-1 26:-1 27:1 
-249.7338715740048 -279.086664130412 3322.719855850226 0 15:-0.14556 17:-0.928877 18:-0.84868 19:-0.997109 21:-0.993275 22:-0.987299 23:-1 24:-1 25:-0.911111 26:-0.998961 27:0.998961 
-0 -35.70383370169961 0 0 15:-0.114114 17:-0.868808 18:-0.766086 19:-0.953808 21:-0.832892 22:-0.996713 23:-0.999172 24:-1 25:-0.942652 26:-0.996804 27:0.996804 
-9136.713242753256 -0 0 0 15:-0.155386 17:-0.938888 18:-0.990314 19:-0.999501 21:-0.992808 22:-0.97619 23:-1 24:-1 25:-0.933333 26:-0.990847 27:0.990847 
-0 -4360.092391150475 0 0 15:-0.114114 17:-0.868808 18:-0.979246 19:-0.999113 21:-0.97934 22:-1 23:-1 24:-1 25:-1 26:-1 27:1 
-0 -0 0 0.03530390117997564 15:-0.114114 17:-0.868808 18:-0.903156 19:-0.951992 21:-0.344233 22:-1 23:-1 24:-1 25:-1 26:-1 27:1 
-0 -36.13945250325756 0 0 15:-0.114114 17:-0.868808 18:-0.838681 19:-0.955096 21:-0.386075 22:-1 23:-1 24:-1 25:-1 26:-1 27:1 
-0 -0 32768 0 15:-0.114114 17:-0.868808 18:-0.741137 19:-0.999113 21:-0.97934 22:-1 23:-1 24:-1 25:-1 26:-1 27:1 
-0 -0 32768 0 15:-0.114114 17:-0.868808 18:-0.72831 19:-0.999113 21:-0.97934 22:-1 23:-1 24:-1 25:-1 26:-1 27:1 
-15.85160524457032 -0 0 0 15:-0.114114 17:-0.868808 18:-0.688127 19:-0.947557 21:-0.284458 22:-1 23:-1 24:-1 25:-1 26:-1 27:1 
-0 -32768 30163.15074172205 0 15:-0.114114 17:-0.868808 18:-0.62772 19:-0.995953 21:-0.936751 22:-1 23:-1 24:-1 25:-1 26:-1 27:1 
-0 -93.06994639970556 0 0.7582644537269564 15:-0.114114 17:-0.868808 18:-0.611696 19:-0.961638 21:-0.474243 22:-1 23:-1 24:-1 25:-1 26:-1 27:1 
-0 -10151.82334220225 27334.20824778427 43.31858422994888 15:-0.114114 17:-0.868808 18:-0.596731 19:-0.999058 21:-0.978593 22:-0.992629 23:-0.993601 24:-1 25:-0.975309 26:-0.994476 27:0.994476 
-0 -3823.494026986308 32768 0 15:-0.0809483 17:-0.977683 18:-0.925629 19:-0.997879 21:-0.996817 22:-1 23:-1 24:-1 25:-1 26:-1 27:0.982609 
-0 -0 32768 0 15:-0.114114 17:-0.868808 18:-0.827246 19:-0.997545 21:-0.97934 22:-1 23:-1 24:-1 25:-1 26:-1 27:1 
-0 -0 32768 0 15:-0.114114 17:-0.868808 18:-0.784273 19:-0.997545 21:-0.97934 22:-1 23:-1 24:-1 25:-1 26:-1 27:1 
-0 -0 32768 0 15:-0.114114 17:-0.868808 18:-0.743429 19:-0.997545 21:-0.97934 22:-1 23:-1 24:-1 25:-1 26:-1 27:1 
-0 -3937.560794024661 32768 0 15:-0.114114 17:-0.868808 18:-0.700303 19:-0.997545 21:-0.97934 22:-1 23:-1 24:-1 25:-1 26:-1 27:1 
-0 -0 32768 0 15:-0.114114 17:-0.868808 18:-0.807685 19:-0.995823 21:-0.97934 22:-1 23:-1 24:-1 25:-1 26:-1 27:1 
-0 -0 1059.396943690853 0 15:-0.114114 17:-0.868808 18:-0.734507 19:-0.986485 21:-0.938992 22:-0.999421 23:-1 24:-1 25:-0.777778 26:-0.995463 27:0.995463 
-13088.03589761477 -0 0 0 15:-0.114114 17:-0.868808 18:-0.981087 19:-0.998262 21:-0.983076 22:-0.965924 23:-1 24:-1 25:-0.939394 26:-0.973098 27:0.973098 
-995.4776607589636 -0 32768 0 15:-0.0809483 17:-0.977683 18:-0.940939 19:-0.998053 21:-0.996817 22:-1 23:-1 24:-1 25:-1 26:-1 27:0.982609 
-0 -0 11267.34369002552 0 15:-0.114114 17:-0.868808 18:-0.817322 19:-0.99774 21:-0.97934 22:-1 23:-1 24:-1 25:-1 26:-1 27:1 
-0 -0 32768 0 15:-0.114114 17:-0.868808 18:-0.748649 19:-0.99774 21:-0.97934 22:-1 23:-1 24:-1 25:-1 26:-1 27:1 
-0 -0 0 0.1047894685997292 15:-0.114114 17:-0.868808 18:-0.701192 19:-0.870588 21:-0.0700159 22:-1 23:-1 24:-1 25:-1 26:-1 27:1 
-0 -0 9948.186293388286 0 15:-0.115956 17:-0.874022 18:-0.918317 19:-0.986173 21:-0.971542 22:-0.985171 23:-1 24:-1 25:-0.916667 26:-0.976812 27:0.976812 
-0 -38.66220761483707 0 0 15:-0.114114 17:-0.868808 18:-0.848088 19:-0.874584 21:-0.740241 22:-1 23:-0.647955 24:-1 25:-1 26:-1 27:0.982609 
-50.21041173212895 -32768 13032.55627643025 0 15:-0.185481 17:-0.989989 18:-0.690074 19:-0.992695 21:-0.998746 22:-1 23:-1 24:-1 25:-1 26:-1 27:0.982609 
-0 -7845.307814688519 32768 0 15:-0.110552 17:-0.875274 18:-0.685375 19:-0.993419 21:-0.986042 22:-1 23:-1 24:-1 25:-1 26:-1 27:1 
-0 -0 32768 0 15:-0.110552 17:-0.875274 18:-0.727033 19:-0.994246 21:-0.986042 22:-1 23:-1 24:-1 25:-1 26:-1 27:1 
-9044.70584202315 -0 0 0 15:-0.114114 17:-0.868808 18:-0.972552 19:-0.996089 21:-0.977846 22:-1 23:-1 24:-1 25:-1 26:-1 27:1 
-8619.050793120208 -0 0 0 15:-0.115956 17:-0.874022 18:-0.965993 19:-0.994564 21:-0.971542 22:-0.985171 23:-1 24:-1 25:-0.916667 26:-0.983946 27:0.983946 
-0 -0 32768 0 15:-0.114114 17:-0.868808 18:-0.721541 19:-0.995174 21:-0.973363 22:-1 23:-1 24:-1 25:-1 26:-1 27:1 
-0 -0 176.872008671277 0 15:-0.114114 17:-0.868808 18:-0.674795 19:-0.87528 21:-0.386075 22:-1 23:-1 24:-1 25:-1 26:-1 27:1 
-0 -0 88.47254662420033 0 15:-0.114114 17:-0.868808 18:-0.85031 19:-0.971445 21:-0.769381 22:-0.999693 23:-1 24:-1 25:-0.888889 26:-0.999787 27:0.999787 
-0 -0 32768 0 15:-0.114114 17:-0.868808 18:-0.715093 19:-0.997923 21:-0.978593 22:-1 23:-1 24:-1 25:-1 26:-1 27:1 
-0 -103.41706232759 13.94535408205735 1.026131518383525 15:-0.114114 17:-0.868808 18:-0.690179 19:-0.973147 21:-0.782831 22:-1 23:-0.536051 24:-1 25:-1 26:-1 27:0.982609 
-13904.89387263714 -0 0 0 15:-0.114114 17:-0.868808 18:-0.968263 19:-0.996688 21:-0.983076 22:-0.965924 23:-1 24:-1 25:-0.939394 26:-0.98225 27:0.98225 
-3.772937081291198 -82.86214035342103 0 0.2289515685390957 15:-0.114114 17:-0.868808 18:-0.928708 19:-0.992429 21:-0.940487 22:-1 23:-0.536051 24:-1 25:-1 26:-1 27:0.982609 
-0 -0 12985.44125305155 0 15:-0.0718585 17:-0.940557 18:-0.915006 19:-0.997783 21:-0.990585 22:-1 23:-1 24:-1 25:-1 26:-1 27:1 
-0 -0 32768 0 15:-0.114114 17:-0.868808 18:-0.750967 19:-0.99768 21:-0.978593 22:-1 23:-1 24:-1 25:-1 26:-1 27:1 
-0 -71.66399331437539 940.9112913235542 0 15:-0.0944601 17:-0.935551 18:-0.745908 19:-0.996032 21:-0.98345 22:-0.994722 23:-1 24:-1 25:-0.911111 26:-0.999525 27:0.999525 
-0 -0 32768 0 15:-0.114114 17:-0.868808 18:-0.803296 19:-0.997034 21:-0.97934 22:-1 23:-1 24:-1 25:-1 26:-1 27:1 
-26661.58795535265 -0 0 0 15:-0.144823 17:-0.920951 18:-0.968263 19:-0.996688 21:-0.989789 22:-0.954247 23:-1 24:-1 25:-0.942387 26:-0.979876 27:0.979876 
-0 -0 32768 0 15:-0.114114 17:-0.868808 18:-0.867526 19:-0.995823 21:-0.97934 22:-1 23:-1 24:-1 25:-1 26:-1 27:1 
-0 -0 32768 0 15:-0.114114 17:-0.868808 18:-0.794112 19:-0.995823 21:-0.97934 22:-1 23:-1 24:-1 25:-1 26:-1 27:1 
-5192.719407876552 -0 0 0 15:-0.106744 17:-0.870894 18:-0.962036 19:-0.985787 21:-0.959073 22:-1 23:-1 24:-1 25:-1 26:-1 27:1 
-12185.41932420736 -0 0 0 15:-0.106744 17:-0.870894 18:-0.954783 19:-0.994289 21:-0.982609 22:-0.992963 23:-1 24:-1 25:-0.936508 26:-0.993593 27:0.993593 
-0 -0 10.78828130896604 0 15:-0.106744 17:-0.918865 18:-0.902647 19:-0.859053 21:-0.751355 22:-1 23:-0.536051 24:-1 25:-1 26:-1 27:0.982609 
-0 -0 32768 0 15:-0.106744 17:-0.870894 18:-0.73137 19:-0.994289 21:-0.982609 22:-1 23:-1 24:-1 25:-1 26:-1 27:1 
-0 -0 32768 0 15:-0.106744 17:-0.870894 18:-0.701993 19:-0.994289 21:-0.982609 22:-1 23:-1 24:-1 25:-1 26:-1 27:1 
-0 -19.77184245363617 0 0 15:-0.1092 17:-0.883408 18:-0.843577 19:-0.924938 21:-0.79663 22:-1 23:-1 24:-1 25:-1 26:-1 27:1 
-0 -0 32152.63890177593 0 15:-0.1092 17:-0.883408 18:-0.813342 19:-0.994726 21:-0.98429 22:-1 23:-1 24:-1 25:-1 26:-1 27:1 
-0 -53.36808391510822 0 0 15:-0.113843 17:-0.874124 18:-0.755664 19:-0.783938 21:-0.770685 22:-1 23:-1 24:-1 25:-1 26:-1 27:1 
-0 -0 32768 0 15:-0.111657 17:-0.864637 18:-0.717232 19:-0.994192 21:-0.977916 22:-1 23:-1 24:-1 25:-1 26:-1 27:1 
-0 -0 32768 0 15:-0.111657 17:-0.864637 18:-0.682346 19:-0.994192 21:-0.977916 22:-1 23:-1 24:-1 25:-1 26:-1 27:1 
-0 -32768 32768 0 15:-0.111657 17:-0.864637 18:-0.64746 19:-0.994192 21:-0.977916 22:-1 23:-1 24:-1 25:-1 26:-1 27:1 
-25542.31283845849 -0 0 0 15:-0.0972853 17:-0.852748 18:-0.89468 19:-0.992253 21:-0.980172 22:-1 23:-1 24:-1 25:-1 26:-1 27:1 
-0 -38.62599467472129 4.355716898643793 0 15:-0.0972853 17:-0.852748 18:-0.737142 19:-0.86081 21:-0.666266 22:-1 23:-0.611758 24:-1 25:-1 26:-1 27:0.982609 
-0 -0 1176.721082874108 0 15:-0.0971625 17:-0.926374 18:-0.686543 19:-0.995057 21:-0.993462 22:-1 23:-1 24:-1 25:-1 26:-1 27:1 
-0 -0 1366.832320112005 0 15:-0.0972853 17:-0.852748 18:-0.680801 19:-0.992253 21:-0.980172 22:-1 23:-1 24:-1 25:-1 26:-1 27:1 
-0 -0 1116.045427117909 13.7281308589594 15:-0.0972853 17:-0.852748 18:-0.669318 19:-0.975428 21:-0.939992 22:-1 23:-1 24:-1 25:-1 26:-1 27:1 
-12.6283057683763 -8.774979362401151 21.92477202686673 0.7353079517503072 15:-0.107726 17:-0.881322 18:-0.150103 19:1 21:1 22:-1 23:-1 24:-1 25:-1 26:-1 27:1 
-482.9466067623503 -0 200.3269822303395 0 15:-0.108463 17:-0.874231 18:-0.970796 19:-0.995821 21:-0.978757 22:-0.997524 23:-1 24:-1 25:-0.777778 26:-0.997301 27:0.997301 
-10.44801322819253 -0 0 0 15:-0.108463 17:-0.918448 18:-0.941592 19:-0.965465 21:-0.897949 22:-1 23:-0.536051 24:-1 25:-1 26:-1 27:0.982609 
-0 -0 4292.796051073948 0 15:-0.109323 17:-0.874439 18:-0.71105 19:-0.932446 21:-0.839237 22:-1 23:-1 24:-1 25:-1 26:-1 27:1 
-0 -0 32768 0 15:-0.109323 17:-0.874439 18:-0.682492 19:-0.985202 21:-0.963763 22:-1 23:-1 24:-1 25:-1 26:-1 27:1 
-0 -459.8641172231384 0 3.153383163082373 15:-0.109323 17:-0.874439 18:-0.635827 19:-0.879387 21:-0.713996 22:-1 23:-1 24:-1 25:-1 26:-1 27:1 
-6.390650496147067 -4.265803601326928 3.265695639758863 0.3726851464079914 15:-0.111534 17:-0.876942 18:-0.7711 19:-0.560389 21:-0.043206 22:-1 23:-1 24:-1 25:-1 26:-1 27:1 
-1662.914905373561 -0 32768 0 15:-0.158826 17:-0.950986 18:-0.904412 19:-0.996588 21:-0.996815 22:-1 23:-1 24:-1 25:-1 26:-1 27:1 
-0 -11428.58388274446 0 0 15:-0.114114 17:-0.877151 18:-0.936177 19:-0.991788 21:-0.985551 22:-1 23:-1 24:-1 25:-1 26:-1 27:1 
-18372.62363485366 -0 0 0 15:-0.114114 17:-0.927208 18:-0.899102 19:-0.995593 21:-0.995218 22:-0.954259 23:-1 24:-1 25:-0.965812 26:-0.992292 27:0.992292 
-0 -0 18.75460838727133 0.03279828483456101 15:-0.114114 17:-0.889665 18:-0.755706 19:-0.645576 21:-0.470694 22:-1 23:-1 24:-1 25:-1 26:-1 27:1 
-0 -0 32768 0 15:-0.0776317 17:-0.987486 18:-0.877643 19:-0.995932 21:-0.998106 22:-1 23:-1 24:-1 25:-1 26:-1 27:1 
-837.0691089729031 -0 8857.412442011835 0 15:-0.059575 17:-0.98686 18:-0.87261 19:-0.981185 21:-0.991017 22:-1 23:-1 24:-1 25:-1 26:-1 27:1 
-0 -0 10561.96044583942 0 15:-0.13217 17:-0.924914 18:-0.874288 19:-0.995932 21:-0.989 22:-1 23:-1 24:-1 25:-1 26:-1 27:1 
-0 -0 32768 0 15:-0.0776317 17:-0.987486 18:-0.874288 19:-0.995932 21:-0.998106 22:-1 23:-1 24:-1 25:-1 26:-1 27:1 
-0 -0 32768 0 15:-0.13217 17:-0.924914 18:-0.870932 19:-0.995932 21:-0.989 22:-1 23:-1 24:-1 25:-1 26:-1 27:1 
-0 -0 32768 0 15:-0.0776317 17:-0.987486 18:-0.870932 19:-0.995932 21:-0.998106 22:-1 23:-1 24:-1 25:-1 26:-1 27:1 
-0 -13264.23787604448 32768 0 15:-0.13217 17:-0.924914 18:-0.867577 19:-0.995932 21:-0.989 22:-1 23:-1 24:-1 25:-1 26:-1 27:1 
-0 -0 32768 0 15:-0.0776317 17:-0.987486 18:-0.867577 19:-0.995932 21:-0.998106 22:-1 23:-1 24:-1 25:-1 26:-1 27:1 
-10.02313889853586 -7.707804397991353 19.24174810889427 0.573402891390689 15:-0.114114 17:-0.889665 18:-0.863308 19:-0.718053 21:0.304744 22:-1 23:-1 24:-1 25:-1 26:-1 27:1 
-32768 -0 0 0 15:-0.139663 17:-0.978517 18:-0.981042 19:-0.99958 21:-0.998664 22:-1 23:-1 24:-1 25:-1 26:-1 27:1 
-6116.540490917898 -0 0 0 15:-0.109446 17:-0.984774 18:-0.981042 19:-0.99958 21:-0.999085 22:-0.939683 23:-1 24:-1 25:-0.944444 26:-0.990062 27:0.990062 
-0 -0 86.71336189910086 0 15:-0.114114 17:-0.889665 18:-0.920422 19:-0.981953 21:-0.869761 22:-1 23:-0.752212 24:-1 25:-1 26:-1 27:0.982609 
-0 -32768 0 0 15:-0.114114 17:-0.889665 18:-0.88766 19:-0.998405 21:-0.984501 22:-1 23:-1 24:-1 25:-1 26:-1 27:1 
-0 -0 3263.308538649595 0 15:-0.114114 17:-0.889665 18:-0.818958 19:-0.976258 21:-0.830043 22:-1 23:-1 24:-1 25:-1 26:-1 27:1 
-0 -0 29755.3559479073 0 15:-0.114114 17:-0.889665 18:-0.71302 19:-0.995784 21:-0.966218 22:-1 23:-1 24:-1 25:-1 26:-1 27:1 
-0 -0 266.2235052515933 0 15:-0.114114 17:-0.889665 18:-0.685687 19:-0.928347 21:-0.495911 22:-1 23:-1 24:-1 25:-1 26:-1 27:1 
-8.181686563075658 -0 16.2711878960985 0 15:-0.112885 17:-0.88758 18:-0.90119 19:-0.867944 21:-0.528951 22:-1 23:-0.536051 24:-1 25:-1 26:-1 27:0.982609 
-0 -0 14162.84138115116 0 15:-0.109446 17:-0.987277 18:-0.961157 19:-0.998481 21:-0.999253 22:-0.947222 23:-1 24:-1 25:-0.925926 26:-0.991304 27:0.991304 
-0 -0 7.850541993054477 0 15:-0.114114 17:-0.889665 18:-0.889601 19:-0.835034 21:-0.426563 22:-1 23:-1 24:-1 25:-1 26:-1 27:1 
-0 -524.7240731028106 0 0 15:-0.111657 17:-0.871311 18:-0.918499 19:-0.994039 21:-0.984865 22:-0.986169 23:-1 24:-1 25:-0.981481 26:-0.991423 27:0.991423 
-0 -0 1116.009944376998 0 15:-0.109446 17:-0.982271 18:-0.960015 19:-0.998582 21:-0.998917 22:-0.934028 23:-1 24:-1 25:-0.955556 26:-0.98913 27:0.98913 
-585.0092780603997 -0 0 0 15:-0.104778 17:-0.938054 18:-0.943097 19:-0.993569 21:-0.986238 22:-0.994938 23:-1 24:-1 25:-0.888889 26:-0.99886 27:0.99886 
-0 -0 1070.769179008023 0 15:-0.114114 17:-0.889665 18:-0.945913 19:-0.962084 21:-0.825 22:-1 23:-0.847297 24:-1 25:-1 26:-1 27:0.982609 
-0 -2355.087186565951 0 0 15:-0.114114 17:-0.889665 18:-0.857679 19:-0.997196 21:-0.984501 22:-1 23:-1 24:-1 25:-1 26:-1 27:1 
-0 -0 32768 0 15:-0.114114 17:-0.889665 18:-0.808897 19:-0.997196 21:-0.984501 22:-1 23:-1 24:-1 25:-1 26:-1 27:1 
-0 -0 32768 0 15:-0.114114 17:-0.889665 18:-0.784742 19:-0.997196 21:-0.984501 22:-1 23:-1 24:-1 25:-1 26:-1 27:1 
-0 -0 85.16133298459612 0 15:-0.114114 17:-0.889665 18:-0.767929 19:-0.957643 21:-0.804826 22:-1 23:-1 24:-1 25:-1 26:-1 27:1 
-0 -0 2947.760663209122 0 15:-0.114114 17:-0.889665 18:-0.858733 19:-0.962362 21:-0.858413 22:-1 23:-1 24:-1 25:-1 26:-1 27:1 
-0 -0 32768 0 15:-0.114114 17:-0.889665 18:-0.843047 19:-0.996409 21:-0.984501 22:-1 23:-1 24:-1 25:-1 26:-1 27:1 
-0 -0 32768 0 15:-0.114114 17:-0.889665 18:-0.826199 19:-0.996409 21:-0.984501 22:-1 23:-1 24:-1 25:-1 26:-1 27:1 
-17979.57100548991 -11.40546297561387 8760.633500262376 0 15:-0.11657 17:-0.9489 18:-0.942898 19:-0.999226 21:-0.99548 22:-0.940625 23:-1 24:-1 25:-0.986111 26:-0.982609 27:0.982609 
-2.914350191948981 -0 0 0.171081650678061 15:-0.114114 17:-0.877151 18:-0.915275 19:-0.926916 21:-0.425863 22:-1 23:-0.598288 24:-1 25:-1 26:-1 27:0.982609 
-0 -0 0 0.5013382545806874 15:-0.115342 17:-0.879237 18:-0.974992 19:-0.988353 21:-0.905894 22:-0.788821 23:-1 24:-1 25:-0.998219 26:-0.754848 27:0.754848 
-0 -0 156.9860345495628 0 15:-0.11657 17:-0.881322 18:-0.958891 19:-0.97047 21:-0.772744 22:-0.999688 23:-1 24:-1 25:-0.944444 26:-0.999559 27:0.999559 
-0 -19.27255416456638 0 0 15:-0.115342 17:-0.879237 18:-0.975256 19:-0.988929 21:-0.910027 22:-0.809238 23:-1 24:-1 25:-0.99748 26:-0.803842 27:0.803842 
-0 -0 2285.264457953158 2.139261465467875 15:-0.0561356 17:-0.99562 18:-0.902889 19:-0.999232 21:-0.999664 22:-0.88125 23:-1 24:-1 25:-0.888889 26:-0.999322 27:0.999322 
-0 -0 32768 0 15:-0.11657 17:-0.881322 18:-0.830737 19:-0.998157 21:-0.981302 22:-1 23:-1 24:-1 25:-1 26:-1 27:1 
-13874.11550351024 -0 0 0 15:-0.144577 17:-0.982271 18:-0.968337 19:-0.999227 21:-0.998468 22:-0.960417 23:-1 24:-1 25:-0.888889 26:-0.999283 27:0.999283 
-0 -0 1582.925031337416 0 15:-0.11657 17:-0.881322 18:-0.923438 19:-0.9906 21:-0.924422 22:-0.999532 23:-1 24:-1 25:-0.888889 26:-0.999676 27:0.999676 
-6.924038431234847 -4.417274116742306 13.5356157188346 0.4244171776112473 15:-0.115342 17:-0.879237 18:-0.977489 19:-0.995719 21:-0.962377 22:-0.54845 23:-1 24:-1 25:-0.997925 26:-0.415167 27:0.415167 
-1.345309097234714 -142.3347370310972 366.6011852677565 0 15:-0.115342 17:-0.879237 18:-0.969789 19:-0.973336 21:-0.791552 22:-0.91659 23:-1 24:-1 25:-0.997055 26:-0.928516 27:0.928516 
-15768.56779576623 -0 0 0 15:-0.11657 17:-0.947231 18:-0.948669 19:-0.999226 21:-0.99533 22:-0.938826 23:-1 24:-1 25:-0.986928 26:-0.981899 27:0.981899 
-0 -522.2318444432085 0 0 15:-0.115342 17:-0.879237 18:-0.903612 19:-0.96469 21:-0.724737 22:-1 23:-1 24:-1 25:-1 26:-1 27:0.982609 
-18.00302086203424 -11.34850918316017 16.62050867009569 0.9117402377731811 15:0.18806 17:-0.364063 18:-0.883262 19:-0.991761 21:-0.646586 22:-1 23:-0.655415 24:-1 25:-1 26:-1 27:1 
-0 -0 32768 0 15:-0.11657 17:-0.881322 18:-0.818593 19:-0.998147 21:-0.981302 22:-1 23:-1 24:-1 25:-1 26:-1 27:1 
-9.072873059923325 -6.481364982255454 15.00870134890474 0.5161993939184695 15:-0.115342 17:-0.879237 18:-0.977489 19:-0.995719 21:-0.962377 22:-0.553134 23:-1 24:-1 25:-0.998369 26:-0.209938 27:0.209938 
-0 -0 1517.928698928879 0 15:-0.115342 17:-0.879237 18:-0.937957 19:-0.991761 21:-0.932069 22:-1 23:-0.761711 24:-1 25:-1 26:-1 27:1 
-0 -1862.384466211122 0 0 15:-0.11657 17:-0.881322 18:-0.890352 19:-0.998147 21:-0.981302 22:-1 23:-1 24:-1 25:-1 26:-1 27:1 
-0 -0 32768 0 15:-0.11657 17:-0.881322 18:-0.827985 19:-0.998147 21:-0.981302 22:-1 23:-1 24:-1 25:-1 26:-1 27:1 
-6.953151505616057 -5.134340186756364 0 0.4359459157343369 15:-0.114114 17:-0.868808 18:-0.936859 19:-0.937393 21:-0.768634 22:-0.999847 23:-1 24:-1 25:-0.111111 26:-0.9999 27:0.9999 
-2.903242951440531 -0 4.357205328972359 0.3117765652415351 15:-0.114114 17:-0.868808 18:-0.892131 19:-0.807553 21:-0.170886 22:-1 23:-0.734091 24:-1 25:-1 26:-1 27:0.982609 
-0 -0 50.94104875337482 0 15:-0.114114 17:-0.868808 18:-0.895691 19:-0.953142 21:-0.810476 22:-0.997569 23:-1 24:-1 25:-0.854701 26:-0.997612 27:0.997612 
-0 -0 10211.81550291056 0 15:-0.167178 17:-0.958911 18:-0.924043 19:-0.997808 21:-0.996862 22:-1 23:-1 24:-1 25:-1 26:-1 27:1 
-6.513994049430706 -4.525156561161922 11.32274120795078 0.3783583808803311 15:-0.114114 17:-0.868808 18:-0.94806 19:-0.969271 21:-0.884448 22:-0.999847 23:-1 24:-1 25:0.777778 26:-0.999879 27:0.999879 
-0 -0 32768 0 15:-0.114114 17:-0.868808 18:-0.716226 19:-0.991956 21:-0.968133 22:-1 23:-1 24:-1 25:-1 26:-1 27:1 
-6.542971540946431 -4.54548089669505 11.33427124469049 0.3810300508851283 15:-0.114851 17:-0.870059 18:-0.959856 19:-0.994136 21:-0.974355 22:-0.999315 23:-1 24:-1 25:0.777778 26:-0.999145 27:0.999145 
-0 -0 32768 0 15:-0.114114 17:-0.990614 18:-0.89524 19:-0.998054 21:-0.999346 22:-1 23:-1 24:-1 25:-1 26:-1 27:1 
-0 -14.50383959464522 0 0 15:-0.114114 17:-0.868808 18:-0.857553 19:-0.901051 21:-0.601265 22:-1 23:-0.692813 24:-1 25:-1 26:-1 27:0.982609 
-0 -0 396.6163830687077 0 15:-0.114114 17:-0.868808 18:-0.797075 19:-0.939106 21:-0.75369 22:-1 23:-0.857454 24:-1 25:-1 26:-1 27:0.982609 
-0 -0 8.438343989841275 0 15:-0.114114 17:-0.868808 18:-0.956605 19:-0.956975 21:-0.768634 22:-0.999847 23:-1 24:-1 25:-0.111111 26:-0.999886 27:0.999886 
-0 -0 373.0805225307615 0 15:-0.114728 17:-0.869851 18:-0.657394 19:-0.952888 21:-0.748945 22:-0.990185 23:-0.743957 24:-1 25:-0.960032 26:-0.983812 27:0.983812 
-4.141226048417386 -3.801521649955646 17.23768426796876 0.4213072033175253 15:-0.114851 17:-0.870059 18:-0.96515 19:-0.994983 21:-0.974355 22:-0.99863 23:-1 24:-1 25:-0.111111 26:-0.998317 27:0.998317 
-29229.33499311845 -0 0 0 15:-0.172338 17:-0.97226 18:-0.960344 19:-0.99345 21:-0.994882 22:-0.990104 23:-1 24:-1 25:-0.925926 26:-0.99667 27:0.99667 
-0 -0 -32768 32.38851358586159 15:-0.114114 17:-0.868808 18:-0.823265 19:-0.996515 21:-0.982329 22:-1 23:-1 24:-1 25:-1 26:-1 27:1 
-0 -0 -32768 0 15:-0.114114 17:-0.868808 18:-0.799541 19:-0.995823 21:-0.97934 22:-1 23:-1 24:-1 25:-1 26:-1 27:1 
-0 -0 -32768 0 15:-0.114114 17:-0.870894 18:-0.709662 19:-0.994959 21:-0.97599 22:-1 23:-1 24:-1 25:-1 26:-1 27:1 
-0 -0 -4.08836251310443 0 15:-0.0698931 17:-0.793722 18:-0.573516 19:-0.993402 21:-0.951227 22:-1 23:-1 24:-1 25:-1 26:-1 27:1 
-0 -3792.579359780818 -0 0 15:-0.114114 17:-0.868808 18:-0.657021 19:-0.997721 21:-0.982329 22:-1 23:-1 24:-1 25:-1 26:-1 27:1 
-0 -32768 -0 0 15:-0.115342 17:-0.870894 18:-0.653002 19:-0.993795 21:-0.959073 22:-0.975011 23:-1 24:-1 25:-0.977011 26:-0.982406 27:0.982406 
-852.6280595360702 -719.5606067201027 -2692.109941332833 0 15:-0.104287 17:-0.885494 18:-0.970906 19:-0.985472 21:-0.927691 22:-0.998288 23:-1 24:-1 25:-0.904762 26:-0.998218 27:0.998218 
-0 -32768 -0 0 15:-0.114114 17:-0.868808 18:-0.646302 19:-0.980133 21:-0.888184 22:-0.987967 23:-1 24:-1 25:-0.979532 26:-0.986232 27:0.986232 
-0 -12277.93003985081 -0 0 15:-0.114114 17:-0.868808 18:-0.63724 19:-0.99738 21:-0.982329 22:-1 23:-1 24:-1 25:-1 26:-1 27:1 
-0 -68.6255820837538 -0 0 15:-0.114359 17:-0.869225 18:-0.625561 19:-0.995464 21:-0.971957 22:-0.974295 23:-1 24:-1 25:-0.940379 26:-0.978172 27:0.978172 
-0 -6418.528304706621 -0 500.8491048324513 15:0.0160914 17:-0.939723 18:-0.828807 19:-0.959464 21:-0.894838 22:-0.982999 23:-1 24:-1 25:-0.971397 26:-0.984501 27:0.984501 
-0 -0 -6757.557709857369 0 15:-0.117185 17:-0.987069 18:-0.961471 19:-0.995854 21:-0.998301 22:-0.963788 23:-1 24:-1 25:-0.944444 26:-0.982609 27:0.982609 
-0 -0 -32768 0 15:-0.114114 17:-0.868808 18:-0.750238 19:-0.991461 21:-0.967385 22:-1 23:-1 24:-1 25:-1 26:-1 27:1 
-0 -0 -32768 0 15:-0.114114 17:-0.868808 18:-0.721112 19:-0.995645 21:-0.982329 22:-1 23:-1 24:-1 25:-1 26:-1 27:1 
-377.2839573605569 -0 -0 0 15:-0.0443434 17:-0.987277 18:-0.990276 19:-0.99939 21:-0.998328 22:-0.990821 23:-1 24:-1 25:-0.777778 26:-0.947826 27:0.947826 
-0 -1734.701332017147 -0 0 15:-0.115342 17:-0.870894 18:-0.585626 19:-0.997561 21:-0.959073 22:-0.97458 23:-1 24:-1 25:-0.977401 26:-0.982609 27:0.982609 
-0 -0 -123.2583758445653 0 15:-0.114359 17:-0.869225 18:-0.582713 19:-0.998559 21:-0.971957 22:-0.974295 23:-1 24:-1 25:-0.940379 26:-0.978172 27:0.978172 
-0 -4352.285017067708 -0 0 15:-0.0608033 17:-0.959746 18:-0.578626 19:-0.99878 21:-0.992164 22:-1 23:-1 24:-1 25:-1 26:-1 27:1 
-11192.16337012748 -0 -0 0 15:0.0160914 17:-0.939723 18:-0.982765 19:-0.999113 21:-0.990455 22:-1 23:-1 24:-1 25:-1 26:-1 27:1 
-0 -515.7286954796675 -0 0 15:-0.00970397 17:-0.983523 18:-0.980722 19:-0.997339 21:-0.993957 22:-1 23:-0.536051 24:-1 25:-1 26:-1 27:0.982609 
-7703.830406922225 -0 -0 0 15:0.0160914 17:-0.939723 18:-0.978111 19:-0.998004 21:-0.98345 22:-0.978889 23:-1 24:-1 25:-0.988889 26:-0.982609 27:0.982609 
-0 -155.4280605742206 -0 0 15:0.0156 17:-0.939723 18:-0.948768 19:-0.981207 21:-0.877326 22:-0.990906 23:-0.703919 24:-1 25:-0.978836 26:-0.981637 27:0.981637 
-32768 -0 -0 0 15:0.0442206 17:-0.987486 18:-0.930436 19:-0.999335 21:-0.998272 22:-1 23:-1 24:-1 25:-1 26:-1 27:1 
-1006.533932874302 -0 -0 0 15:0.0160914 17:-0.939723 18:-0.921923 19:-0.991352 21:-0.941421 22:-0.886 23:-1 24:-1 25:-0.978836 26:-0.938942 27:0.938942 
-0 -0 -0 22520.38437298331 15:-0.0698931 17:-0.793722 18:-0.544005 19:-0.998337 21:-0.951227 22:-1 23:-1 24:-1 25:-1 26:-1 27:1 
-0 -0 -32768 0 15:-0.114114 17:-0.868808 18:-0.658622 19:-0.995762 21:-0.967385 22:-1 23:-1 24:-1 25:-1 26:-1 27:1 
-0 -32768 -0 0 15:-0.114114 17:-0.868808 18:-0.645388 19:-0.997991 21:-0.982329 22:-1 23:-1 24:-1 25:-1 26:-1 27:1 
-0 -22547.06959206764 -0 0 15:-0.115342 17:-0.870894 18:-0.641737 19:-0.994425 21:-0.959073 22:-0.977596 23:-1 24:-1 25:-0.974359 26:-0.982609 27:0.982609 
-0 -0 -32768 0 15:-0.114114 17:-0.868808 18:-0.727425 19:-0.996515 21:-0.982329 22:-1 23:-1 24:-1 25:-1 26:-1 27:1 
-0 -0 -32768 0 15:-0.114114 17:-0.868808 18:-0.703702 19:-0.995823 21:-0.97934 22:-1 23:-1 24:-1 25:-1 26:-1 27:1 
-0 -5093.937909028105 -0 0 15:-0.114114 17:-0.870894 18:-0.613823 19:-0.994959 21:-0.97599 22:-1 23:-1 24:-1 25:-1 26:-1 27:1 
-0 -296.5509851737917 -0 0 15:0.0160914 17:-0.939723 18:-0.755044 19:-0.971613 21:-0.941421 22:-0.886 23:-1 24:-1 25:-0.978836 26:-0.938942 27:0.938942 
-0 -0 -636.0868726714532 0 15:-0.0698931 17:-0.793722 18:-0.573516 19:-0.993402 21:-0.951227 22:-1 23:-1 24:-1 25:-1 26:-1 27:1 
-0 -32768 -0 0 15:-0.115342 17:-0.870894 18:-0.634766 19:-0.994814 21:-0.959073 22:-0.976304 23:-1 24:-1 25:-0.975758 26:-0.982609 27:0.982609 
-0 -203.417089795359 -774.2221801282911 0 15:-0.114114 17:-0.868808 18:-0.855841 19:-0.96435 21:-0.843353 22:-0.988238 23:-1 24:-1 25:-0.985043 26:-0.985335 27:0.985335 
-0 -0 -32768 0 15:-0.114114 17:-0.868808 18:-0.840851 19:-0.996515 21:-0.982329 22:-1 23:-1 24:-1 25:-1 26:-1 27:1 
-0 -0 -32768 0 15:-0.114114 17:-0.868808 18:-0.817127 19:-0.995823 21:-0.97934 22:-1 23:-1 24:-1 25:-1 26:-1 27:1 
-0 -0 -32768 0 15:-0.114114 17:-0.870894 18:-0.727248 19:-0.994959 21:-0.97599 22:-1 23:-1 24:-1 25:-1 26:-1 27:1 
-0 -5489.293718158231 -0 0 15:0.0434836 17:-0.986234 18:-0.781601 19:-0.996515 21:-0.998104 22:-1 23:-1 24:-1 25:-1 26:-1 27:1 
-0 -0.08150836160363736 -0 0 15:0.0160914 17:-0.939723 18:-0.755044 19:-0.971613 21:-0.941421 22:-0.886 23:-1 24:-1 25:-0.978836 26:-0.938942 27:0.938942 
-0 -0 -34.10203714997375 0 15:-0.0698931 17:-0.793722 18:-0.573516 19:-0.993402 21:-0.951227 22:-1 23:-1 24:-1 25:-1 26:-1 27:1 
-0 -0 -0 169.5223013502152 15:-0.0721042 17:-0.94598 18:-0.670909 19:-0.986535 21:-0.987968 22:-1 23:-1 24:-1 25:-1 26:-1 27:1 
-0 -8777.850070384788 -3721.517334540516 0 15:-0.19064 17:-0.998749 18:-0.670044 19:-0.989796 21:-0.999666 22:-1 23:-1 24:-1 25:-1 26:-1 27:1 
-0 -674.2859015511529 -0 0 15:-0.179462 17:-0.987694 18:-0.670044 19:-0.989796 21:-0.99781 22:-0.978286 23:-1 24:-1 25:-0.925926 26:-0.982609 27:0.982609 
-0 -9103.720809401291 -0 0 15:-0.0098268 17:-0.983731 18:-0.93303 19:-0.990158 21:-0.997248 22:-1 23:-1 24:-1 25:-1 26:-1 27:1 
-0 -0 -10457.24708266053 0 15:-0.112885 17:-0.866722 18:-0.697895 19:-0.98911 21:-0.972943 22:-1 23:-1 24:-1 25:-1 26:-1 27:1 
-0 -32768 -0 0 15:-0.112885 17:-0.866722 18:-0.606707 19:-0.995174 21:-0.972943 22:-1 23:-1 24:-1 25:-1 26:-1 27:1 
-32768 -0 -0 0 15:-0.0098268 17:-0.983731 18:-0.972188 19:-0.996242 21:-0.997248 22:-1 23:-1 24:-1 25:-1 26:-1 27:1 
-1.854389949091218 -4.446114019923477 -0 0 15:-0.114114 17:-0.868808 18:-0.620796 19:-0.986386 21:-0.887437 22:-0.986316 23:-1 24:0.2 25:-0.938697 26:-1 27:0.982609 
-0 -32768 -0 0 15:-0.114114 17:-0.868808 18:-0.612567 19:-0.994046 21:-0.947959 22:-1 23:-1 24:-1 25:-1 26:-1 27:1 
-20123.32076654258 -0 -0 0 15:-0.0128977 17:-0.988946 18:-0.96852 19:-0.998017 21:-0.998169 22:-1 23:-1 24:-1 25:-1 26:-1 27:1 
-2034.884530445165 -908.817588196104 -0 0 15:0.0465545 17:-0.991449 18:-0.968617 19:-0.998679 21:-0.998987 22:-0.944322 23:-1 24:-1 25:-0.944444 26:-0.982609 27:0.982609 
-6494.447715364337 -0 -0 0 15:0.0346395 17:-0.971217 18:-0.964518 19:-0.992911 21:-0.985997 22:-0.980095 23:-1 24:-1 25:-0.916667 26:-0.990926 27:0.990926 
-0 -20896.47634844685 -0 0 15:0.0160914 17:-0.939723 18:-0.958709 19:-0.96927 21:-0.883981 22:-1 23:-1 24:-1 25:-1 26:-1 27:1 
-11254.90495265024 -0 -0 0 15:0.0442206 17:-0.987486 18:-0.902105 19:-0.998396 21:-0.998272 22:-1 23:-1 24:-1 25:-1 26:-1 27:1 
-0 -407.6657215572048 -578.9508634150727 0 15:-0.114114 17:-0.868808 18:-0.864752 19:-0.968674 21:-0.862032 22:-0.998203 23:-0.97616 24:-1 25:-0.888889 26:-0.997636 27:0.997636 
-0 -6385.94125319894 -7362.968057647622 0 15:-0.114114 17:-0.868808 18:-0.84333 19:-0.979914 21:-0.910599 22:-0.990698 23:-1 24:-1 25:-0.981087 26:-0.986452 27:0.986452 
-0 -0 -32768 0 15:-0.114114 17:-0.868808 18:-0.833651 19:-0.996515 21:-0.982329 22:-1 23:-1 24:-1 25:-1 26:-1 27:1 
-0 -0 -32768 0 15:-0.114114 17:-0.868808 18:-0.809928 19:-0.995823 21:-0.97934 22:-1 23:-1 24:-1 25:-1 26:-1 27:1 
-0 -0 -32768 0 15:-0.114114 17:-0.870894 18:-0.720049 19:-0.994959 21:-0.97599 22:-1 23:-1 24:-1 25:-1 26:-1 27:1 
-0 -15.71740322713854 -0 0 15:0.0160914 17:-0.939723 18:-0.690482 19:-0.958125 21:-0.914102 22:-0.991556 23:-0.697239 24:-1 25:-0.97832 26:-0.982321 27:0.982321 
-0 -0 -32768 0 15:-0.114114 17:-0.868808 18:-0.688815 19:-0.998194 21:-0.982329 22:-1 23:-1 24:-1 25:-1 26:-1 27:1 
-0 -0 -32768 0 15:-0.114114 17:-0.868808 18:-0.673111 19:-0.997268 21:-0.975604 22:-1 23:-1 24:-1 25:-1 26:-1 27:1 
-0 -0 -32768 0 15:-0.114114 17:-0.868808 18:-0.669773 19:-0.997371 21:-0.976352 22:-1 23:-1 24:-1 25:-1 26:-1 27:1 
-1.607081588515203 -3.776767914299929 -0 0 15:-0.0411497 17:-0.9927 18:-0.667314 19:-0.996753 21:-0.998221 22:1 23:-1 24:-1 25:-0.98744 26:1 27:-1 
-1.581696503650604 -3.776259928678701 -0 0 15:-0.0411497 17:-0.9927 18:-0.664643 19:-0.996753 21:-0.998221 22:1 23:-1 24:-1 25:-0.98744 26:1 27:-1 
-0 -16557.44734923784 -21576.84109200404 0 15:-0.114114 17:-0.868808 18:-0.619883 19:-0.993459 21:-0.947959 22:-1 23:-1 24:-1 25:-1 26:-1 27:1 
-0 -13.43426736645711 -0 0 15:-0.114114 17:-0.868808 18:-0.586084 19:-0.987282 21:-0.903127 22:-0.993606 23:-0.665421 24:-1 25:-0.949206 26:-0.98192 27:0.98192 
-0 -32768 -0 0 15:0.0160914 17:-0.939723 18:-0.954988 19:-0.966485 21:-0.883981 22:-1 23:-1 24:-1 25:-1 26:-1 27:1 
-0 -12326.0432499415 -0 0 15:0.0160914 17:-0.941808 18:-0.772188 19:-0.997474 21:-0.989766 22:-1 23:-1 24:-1 25:-1 26:-1 27:1 
-13235.1090234075 -0 -0 0 15:-0.130696 17:-0.987069 18:-0.976368 19:-0.997683 21:-0.998301 22:-0.963788 23:-1 24:-1 25:-0.944444 26:-0.982609 27:0.982609 
-0 -275.6029280485219 -0 0 15:-0.114114 17:-0.868808 18:-0.700542 19:-0.981214 21:-0.888184 22:-0.990342 23:-1 24:-1 25:-0.978142 26:-0.986957 27:0.986957 
-0 -1357.808920459523 -32768 0 15:-0.114114 17:-0.868808 18:-0.691957 19:-0.997553 21:-0.982329 22:-1 23:-1 24:-1 25:-1 26:-1 27:1 
-1.897354079287601 -4.458219349190278 -0 0 15:-0.114114 17:-0.868808 18:-0.63819 19:-0.981085 21:-0.887437 22:-0.988361 23:-1 24:0.411765 25:-0.927928 26:-1 27:0.982609 
-0 -0 -5023.01814237976 0 15:-0.114114 17:-0.868808 18:-0.626906 19:-0.991588 21:-0.947959 22:-1 23:-1 24:-1 25:-1 26:-1 27:1 
-0 -7137.018050624419 -0 0 15:-0.114114 17:-0.870894 18:-0.57898 19:-0.996386 21:-0.97599 22:-1 23:-1 24:-1 25:-1 26:-1 27:1 
-0 -8663.671239169949 -0 0 15:0.0442206 17:-0.987486 18:-0.830556 19:-0.997553 21:-0.998272 22:-1 23:-1 24:-1 25:-1 26:-1 27:1 
-0 -0 -32768 0 15:-0.114114 17:-0.868808 18:-0.72058 19:-0.996515 21:-0.982329 22:-1 23:-1 24:-1 25:-1 26:-1 27:1 
-0 -0 -32768 0 15:-0.114114 17:-0.868808 18:-0.696856 19:-0.995823 21:-0.97934 22:-1 23:-1 24:-1 25:-1 26:-1 27:1 
-0 -32768 -0 0 15:-0.114114 17:-0.870894 18:-0.606977 19:-0.994959 21:-0.97599 22:-1 23:-1 24:-1 25:-1 26:-1 27:1 
-0 -0 -25.02083759338363 0 15:-0.0698931 17:-0.793722 18:-0.573516 19:-0.993402 21:-0.951227 22:-1 23:-1 24:-1 25:-1 26:-1 27:1 
-0 -0 -32768 33.52603214774817 15:-0.114114 17:-0.868808 18:-0.790689 19:-0.996515 21:-0.982329 22:-1 23:-1 24:-1 25:-1 26:-1 27:1 
-0 -0 -32768 0 15:-0.114114 17:-0.868808 18:-0.766965 19:-0.995823 21:-0.97934 22:-1 23:-1 24:-1 25:-1 26:-1 27:1 
-0 -0 -32768 0 15:-0.114114 17:-0.870894 18:-0.677086 19:-0.994959 21:-0.97599 22:-1 23:-1 24:-1 25:-1 26:-1 27:1 
-0 -36.26495142812551 -0 0 15:0.0160914 17:-0.939723 18:-0.690482 19:-0.958125 21:-0.914102 22:-0.991556 23:-0.697239 24:-1 25:-0.97832 26:-0.982321 27:0.982321 
-0 -32768 -0 0 15:-0.114114 17:-0.868808 18:-0.681866 19:-0.996515 21:-0.982329 22:-1 23:-1 24:-1 25:-1 26:-1 27:1 
-0 -8148.888214554669 -0 0 15:-0.114114 17:-0.868808 18:-0.658143 19:-0.995823 21:-0.97934 22:-1 23:-1 24:-1 25:-1 26:-1 27:1 
-0 -5.409376569362507 -0 0 15:0.0160914 17:-0.939723 18:-0.690482 19:-0.958125 21:-0.914102 22:-0.991556 23:-0.697239 24:-1 25:-0.97832 26:-0.982321 27:0.982321 
-0 -0 -1953.873050159853 0 15:-0.0698931 17:-0.793722 18:-0.573516 19:-0.993402 21:-0.951227 22:-1 23:-1 24:-1 25:-1 26:-1 27:1 
-0 -0 -32768 0 15:-0.112394 17:-0.877151 18:-0.754159 19:-0.995062 21:-0.96944 22:-1 23:-1 24:-1 25:-1 26:-1 27:1 
-0 -19291.76732610631 -0 6.638028012767046 15:-0.111043 17:-0.876108 18:-0.711091 19:-0.938137 21:-0.653457 22:-1 23:-1 24:-1 25:-1 26:-1 27:0.982609 
-0 -20073.94925876564 -0 0 15:-0.111166 17:-0.872145 18:-0.670804 19:-0.961187 21:-0.774425 22:-1 23:-1 24:-1 25:-1 26:-1 27:0.982609 
-15.4990083967631 -150.1605554839963 -247.2840107045676 1.057764979020485 15:-0.111289 17:-0.876108 18:-0.620912 19:-0.896494 21:-0.422489 22:-1 23:-1 24:-1 25:-1 26:-1 27:1 
-10307.04168783202 -0 -0 0 15:0.00933546 17:-0.936594 18:-0.943817 19:-0.967045 21:-0.903174 22:-0.956498 23:-1 24:-1 25:-0.987862 26:-0.982159 27:0.982159 
-0 -3211.225510232033 -0 0 15:0.010441 17:-0.935968 18:-0.896011 19:-0.982327 21:-0.9468 22:-0.962491 23:-1 24:-1 25:-0.978368 26:-0.982242 27:0.982242 
-0 -0 -0 179.3083883632701 15:0.00933546 17:-0.932423 18:-0.832821 19:-0.968319 21:-0.900921 22:-0.919793 23:-1 24:-1 25:-0.990101 26:-0.961659 27:0.961659 
-0 -0 -2168.404580435349 0 15:-0.106744 17:-0.870894 18:-0.658834 19:-0.994289 21:-0.982609 22:-0.997989 23:-1 24:-1 25:-0.888889 26:-0.995031 27:0.995031 
-0 -32768 -0 0 15:-0.106744 17:-0.870894 18:-0.63127 19:-0.926272 21:-0.794319 22:-1 23:-1 24:-1 25:-1 26:-1 27:0.982609 
-0 -0 -427.1405385697983 0 15:-0.163493 17:-0.974763 18:-0.58131 19:-0.991366 21:-0.994868 22:-0.957229 23:-1 24:-1 25:-0.982906 26:-0.982609 27:0.982609 
-0 -0 -0 12.88550232884807 15:-0.12566 17:-0.974763 18:-0.58131 19:-0.991366 21:-0.994868 22:-0.957229 23:-1 24:-1 25:-0.982906 26:-0.982609 27:0.982609 
-0 -0 -0 172.1864920991171 15:-0.087827 17:-0.973094 18:-0.583033 19:-0.995351 21:-0.996993 22:-0.945714 23:-1 24:-1 25:-0.977778 26:-0.979933 27:0.979933 
-0 -0 -0 36.41691537286456 15:-0.0499939 17:-0.973094 18:-0.58938 19:-0.976753 21:-0.985551 22:-1 23:-0.536051 24:-1 25:-1 26:-1 27:0.982609 
-0 -936.0970574207847 -0 0 15:0.0400442 17:-0.99124 18:-0.943449 19:-0.995086 21:-0.998962 22:-1 23:-0.695286 24:-1 25:-1 26:-1 27:0.982609 
-6822.945993308602 -0 -0 0 15:0.0109323 17:-0.941808 18:-0.92196 19:-0.946465 21:-0.931194 22:-0.951697 23:-1 24:-1 25:-0.990544 26:-0.981352 27:0.981352 
-1.448690178121214 -2.926108085852932 -0 0 15:-0.0517135 17:-0.974346 18:-0.924996 19:-0.987663 21:-0.994317 22:-0.997015 23:-1 24:-1 25:0.333333 26:-0.973913 27:0.973913 
-0 -0 -32768 0 15:-0.112885 17:-0.877151 18:-0.735012 19:-0.99348 21:-0.985551 22:-1 23:-1 24:-1 25:-1 26:-1 27:1 
-1388.427215952248 -0 -0 0 15:0.0105638 17:-0.932423 18:-0.947299 19:-0.987321 21:-0.985008 22:-0.995346 23:-1 24:-1 25:-0.944444 26:-0.982609 27:0.982609 
-0 -0 -32768 0 15:-0.1092 17:-0.875065 18:-0.757771 19:-0.993241 21:-0.978897 22:-1 23:-1 24:-1 25:-1 26:-1 27:1 
-0 -0 -32768 0 15:-0.1092 17:-0.862134 18:-0.740035 19:-0.994231 21:-0.979863 22:-1 23:-1 24:-1 25:-1 26:-1 27:1 
-4.129672066394421 -4.740832728786307 -0 0 15:0.0128977 17:-0.935968 18:-0.7625 19:-0.381979 21:-0.0721174 22:-1 23:-1 24:-1 25:-1 26:-1 27:0.982609 
-0 -2710.719786781286 -0 0 15:-0.113843 17:-0.86999 18:-0.642873 19:-0.941065 21:-0.935091 22:-0.995142 23:-1 24:-1 25:-0.901235 26:-0.986189 27:0.986189 
-0 -7303.801049734205 -0 126.5974380521021 15:-0.0529692 17:-0.973353 18:-0.61375 19:-0.981702 21:-0.995726 22:-1 23:-1 24:-1 25:-1 26:-1 27:0.982609 
-0 -16545.50869149098 -0 0 15:-0.113843 17:-0.870403 18:-0.592949 19:-0.976283 21:-0.973684 22:-1 23:-1 24:-1 25:-1 26:-1 27:1 
-0 -0 -0 319.9088877268269 15:-0.113843 17:-0.870403 18:-0.549958 19:-0.899074 21:-0.889523 22:-0.986976 23:-1 24:-1 25:-0.98645 26:-0.985787 27:0.985787 
-0 -2118.639342409754 -234.1767919558139 720.5329351337443 15:-0.113843 17:-0.870403 18:-0.469063 19:-0.976283 21:-0.973684 22:-0.997353 23:-1 24:-1 25:-0.944444 26:-0.982609 27:0.982609 
-0 -0 -0 74.59863899790665 15:-0.113843 17:-0.876605 18:-0.31721 19:-0.978315 21:-0.977045 22:-1 23:-1 24:-1 25:-1 26:-1 27:1 
-1.864061012075304 -0 -0 0 15:-0.165707 17:-0.963016 18:-0.0754484 19:-0.807642 21:-0.937602 22:-1 23:-0.536051 24:-1 25:-1 26:-1 27:0.982609 
-0.4347465505356934 -12.60297051789575 -0 0 15:-0.113599 17:-0.874124 18:0.0893474 19:-0.804256 21:-0.792208 22:-0.991039 23:-0.804925 24:-1 25:-0.987421 26:-0.982044 27:0.982044 
-0 -599.9002904083569 -0 0 15:0.0152094 17:-0.942344 18:-0.701118 19:-0.811029 21:-0.906302 22:-0.964621 23:-1 24:-1 25:-0.988242 26:-0.981253 27:0.981253 
-0 -0 -0 311.8086923782918 15:0.0152094 17:-0.940277 18:-0.478308 19:-0.980347 21:-0.989847 22:-1 23:-1 24:-1 25:-1 26:-1 27:1 
-0 -0 -0 31.46408859459734 15:0.0152094 17:-0.940277 18:-0.223603 19:-0.978992 21:-0.989153 22:-1 23:-1 24:-1 25:-1 26:-1 27:1 
-1.745316674958525 -0 -0 0 15:0.0152094 17:-0.940277 18:0.0671589 19:-0.980347 21:-0.989847 22:-1 23:-1 24:-1 25:-1 26:-1 27:1 
-1.948327933681828 -5.875596261373813 -0 0 15:0.0152094 17:-0.940277 18:0.185035 19:-0.675574 21:-0.833633 22:-0.9905 23:-0.729363 24:-1 25:-0.97037 26:-0.982987 27:0.982987 
-0.9448909340505217 -0 -0 0 15:-0.0079226 17:-0.710811 18:-0.538864 19:-0.974929 21:-0.938262 22:-0.998865 23:-1 24:-1 25:-0.666667 26:-0.990926 27:0.990926 
-0 -18175.77573461261 -0 0 15:-0.160791 17:-0.948065 18:-0.590865 19:-0.994862 21:-0.992369 22:-1 23:-1 24:-1 25:-1 26:-1 27:0.982609 
-0 -0 -5600.957092384233 0 15:-0.0972853 17:-0.848576 18:-0.647667 19:-0.962459 21:-0.906475 22:-1 23:-0.993185 24:-1 25:-1 26:-1 27:1 
-0 -5316.029970783111 -0 0 15:0.0212505 17:-0.964751 18:-0.886785 19:-0.972624 21:-0.98345 22:-1 23:-1 24:-1 25:-1 26:-1 27:1 
-0 -0 -32768 0 15:-0.112394 17:-0.877151 18:-0.837724 19:-0.99313 21:-0.96944 22:-1 23:-1 24:-1 25:-1 26:-1 27:1 
-0 -32768 -0 0 15:-0.111166 17:-0.872145 18:-0.725631 19:-0.947577 21:-0.774425 22:-1 23:-1 24:-1 25:-1 26:-1 27:0.982609 
-0 -0 -0 1.133684352417264 15:0.00933546 17:-0.932423 18:-0.774956 19:-0.957167 21:-0.900921 22:-0.919793 23:-1 24:-1 25:-0.990101 26:-0.961659 27:0.961659 
-0 -0 -0 0.07597842005969671 15:0.00921263 17:-0.932631 18:-0.756313 19:-0.994329 21:-0.985834 22:-0.98524 23:-1 24:-1 25:-0.944444 26:-0.983524 27:0.983524 
-0 -453.2308152934269 -0 0 15:0.0298489 17:-0.967254 18:-0.716747 19:-0.981827 21:-0.978687 22:-1 23:-0.58576 24:-1 25:-1 26:-1 27:0.982609 
-0 -169.2154299326463 -0 0 15:0.0362363 17:-0.979351 18:-0.703481 19:-0.994671 21:-0.995767 22:-1 23:-0.963125 24:-1 25:-1 26:-1 27:0.982609 
-1.544288740917349 -4.730925516411886 -0 0 15:-0.156369 17:-0.963917 18:0.573334 19:-0.976283 21:-0.992528 22:-0.96558 23:-1 24:-1 25:-0.97037 26:-0.98882 27:0.98882 
-3.186175327929222 -7.544484737297231 -0 0 15:-0.107726 17:-0.872979 18:0.601069 19:-0.976283 21:-0.974203 22:-1 23:-0.594793 24:-0.142857 25:-1 26:-1 27:1 
-1.843534613054597 -4.0493611281832 -0 0 15:-0.107726 17:-0.872979 18:0.787591 19:-0.795451 21:-0.780939 22:-1 23:-1 24:-1 25:-1 26:-1 27:0.982609 
-1.53622177244963 -3.026406392857985 -0 0 15:-0.107726 17:-0.872979 18:0.86086 19:-0.991183 21:-0.990128 22:-1 23:-1 24:-1 25:-1 26:-1 27:1 
-0 -0.3333243640873537 -0 8.906577612708508 15:-0.107726 17:-0.885494 18:0.903388 19:-0.91262 21:-0.915269 22:-0.980582 23:-1 24:-1 25:-0.988053 26:-0.982732 27:0.982732 
-2490.824127324797 -0 -0 0 15:0.00872129 17:-0.938054 18:-0.911908 19:-0.980347 21:-0.989474 22:-1 23:-1 24:-1 25:-1 26:-1 27:1 
-0 -9959.682532983961 -0 0 15:0.0337796 17:-0.959746 18:-0.646571 19:-0.991183 21:-0.996927 22:-0.909524 23:-1 24:-1 25:-0.986928 26:-0.982609 27:0.982609 
-0 -0 -0 58.4073499808794 15:0.0276379 17:-0.97518 18:-0.534704 19:-0.945129 21:-0.987816 22:-1 23:-0.536051 24:-1 25:-1 26:-1 27:0.982609 
-0 -0 -201.4205486425508 1272.540603952976 15:-0.0020882 17:-0.956408 18:-0.41729 19:-0.991183 21:-0.996666 22:-0.906234 23:-1 24:-1 25:-0.988304 26:-0.981976 27:0.981976 
-49.13644114604191 -4307.665267191052 -0 0 15:0.011178 17:-0.939723 18:-0.965837 19:-0.961913 21:-0.916203 22:-1 23:-0.536051 24:-1 25:-1 26:-1 27:0.982609 
-0 -0 -2149.638594274965 0 15:-0.10527 17:-0.879654 18:-0.648884 19:-0.998728 21:-0.992024 22:-0.969841 23:-0.960614 24:-1 25:-0.936508 26:-0.989994 27:0.989994 
-0 -0 -0 117.6456027410388 15:-0.0599435 17:-0.965377 18:-0.621552 19:-0.986133 21:-0.981664 22:-0.998092 23:-1 24:-1 25:-0.888889 26:-0.999488 27:0.999488 
-0 -0 -47.24520654171551 0 15:-0.108463 17:-0.872979 18:-0.575596 19:-0.945766 21:-0.754157 22:-0.98767 23:-0.759926 24:-1 25:-0.989604 26:-0.981058 27:0.981058 
-0 -11.42161243143659 -0 133.4300023615783 15:-0.108709 17:-0.867974 18:-0.552618 19:-0.99566 21:-0.976954 22:-1 23:-0.867443 24:-1 25:-1 26:-1 27:0.982609 
-842.624270961965 -0 -0 0 15:-0.0820538 17:-0.934508 18:-0.961506 19:-0.99724 21:-0.992673 22:-0.981292 23:-0.98287 24:-1 25:-0.805556 26:-0.993579 27:0.993579 
-0 -17872.10308519519 -32768 0 15:-0.112394 17:-0.877151 18:-0.848945 19:-0.99313 21:-0.96944 22:-1 23:-1 24:-1 25:-1 26:-1 27:1 
-0 -2042.328906085289 -0 0 15:-0.147893 17:-0.93868 18:-0.805697 19:-0.959565 21:-0.914802 22:-0.962 23:-1 24:-1 25:-0.990285 26:-0.982087 27:0.982087 
-0 -4320.607723816917 -1089.941745858942 0 15:-0.111043 17:-0.876108 18:-0.791028 19:-0.91658 21:-0.653457 22:-1 23:-1 24:-1 25:-1 26:-1 27:0.982609 
-0 -2550.959044700208 -0 0 15:-0.111166 17:-0.872145 18:-0.757131 19:-0.994329 21:-0.973307 22:-1 23:-0.541256 24:-1 25:-1 26:-1 27:0.982609 
-0 -32768 -0 0 15:-0.111166 17:-0.872145 18:-0.736852 19:-0.947577 21:-0.774425 22:-1 23:-1 24:-1 25:-1 26:-1 27:0.982609 
-0 -0 -0 118.0093894861489 15:0.00933546 17:-0.932423 18:-0.774956 19:-0.957167 21:-0.900921 22:-0.919793 23:-1 24:-1 25:-0.990101 26:-0.961659 27:0.961659 
-0 -0 -0 26.61932159129389 15:0.00921263 17:-0.932631 18:-0.756313 19:-0.994329 21:-0.985834 22:-0.98524 23:-1 24:-1 25:-0.944444 26:-0.983524 27:0.983524 
-0 -618.6160076418707 -0 0 15:0.0298489 17:-0.967254 18:-0.716747 19:-0.981827 21:-0.978687 22:-1 23:-0.58576 24:-1 25:-1 26:-1 27:0.982609 
-0 -74.29261476697182 -0 0 15:0.0362363 17:-0.979351 18:-0.703481 19:-0.994671 21:-0.995767 22:-1 23:-0.963125 24:-1 25:-1 26:-1 27:0.982609 
-32768 -20764.9750568408 -0 0 15:0.0137575 17:-0.93576 18:-0.952445 19:-0.987931 21:-0.98462 22:-1 23:-1 24:-1 25:-1 26:-1 27:0.982609 
-2.106199804667093 -5.060183087523521 -0 0 15:-0.111411 17:-0.951403 18:-0.604986 19:-0.992918 21:-0.993425 22:-0.997404 23:-1 24:-1 25:0.555556 26:-0.973913 27:0.973913 
-2220.205572170524 -0 -0 0 15:0.00773861 17:-0.933883 18:-0.958253 19:-0.989368 21:-0.986859 22:-0.990732 23:-1 24:-1 25:-0.968254 26:-0.975652 27:0.975652 
-1.731734844706881 -5.038449698760515 -0 0 15:-0.162634 17:-0.951194 18:-0.895947 19:-0.986733 21:-0.988534 22:-0.998487 23:-1 24:-1 25:0.111111 26:-0.993478 27:0.993478 
-0 -0 -0 44.19606755822791 15:0.00994964 17:-0.929294 18:-0.67492 19:-0.950034 21:-0.939378 22:-1 23:-0.859792 24:-1 25:-1 26:-1 27:0.982609 
-0 -308.0540116947968 -0 0 15:-0.0121607 17:-0.966837 18:-0.596413 19:-0.966685 21:-0.980414 22:-1 23:-0.604279 24:-1 25:-1 26:-1 27:0.982609 
-0 -258.3198144412629 -0 0 15:0.0296032 17:-0.966837 18:-0.596413 19:-0.966685 21:-0.980414 22:-1 23:-0.604279 24:-1 25:-1 26:-1 27:0.982609 
-9.604987397833073 -1.88459380842527 -0 0 15:-0.114114 17:-0.879654 18:-0.885686 19:-0.983334 21:-0.972116 22:-0.991173 23:-1 24:-0.636364 25:-0.888889 26:-0.985678 27:0.985678 
-1323.695069085703 -0 -0 0 15:0.00503624 17:-0.929294 18:-0.906459 19:-0.952052 21:-0.953271 22:-0.963369 23:-1 24:-1 25:-0.988545 26:-0.982609 27:0.982609 
-0 -175.2780803615906 -0 0 15:0.00479057 17:-0.931797 18:-0.813267 19:-0.789726 21:-0.803353 22:-0.994863 23:-0.764661 24:-1 25:-0.953216 26:-0.984591 27:0.984591 
-0 -0 -0 159.4753633692541 15:0.00503624 17:-0.929294 18:-0.652992 19:-0.982065 21:-0.982282 22:-0.963481 23:-1 24:-1 25:-0.963964 26:-0.983214 27:0.983214 
-0 -0 -29559.09080558323 0 15:-0.0780002 17:-0.991031 18:-0.955555 19:-0.99666 21:-0.998875 22:-1 23:-1 24:-1 25:-1 26:-1 27:0.982609 
-154.9855986202295 -0 -0 0 15:-0.114237 17:-0.888622 18:-0.783949 19:-0.99047 21:-0.96463 22:-0.998008 23:-1 24:-1 25:-0.944444 26:-0.991973 27:0.991973 
-0 -960.4068581960758 -0 0 15:-0.114359 17:-0.892168 18:-0.752386 19:-0.926384 21:-0.748759 22:-0.994496 23:-0.674367 24:-1 25:-0.948718 26:-0.982534 27:0.982534 
-0 -0 -0 318.8337082687202 15:-0.0664538 17:-0.987277 18:-0.581402 19:-0.998481 21:-0.999253 22:-0.894444 23:-1 24:-1 25:-0.962963 26:-0.982609 27:0.982609 
-0 -32768 -0 0 15:0.00503624 17:-0.935134 18:-0.95307 19:-0.951145 21:-0.898009 22:-1 23:-1 24:-1 25:-1 26:-1 27:0.982609 
-0 -32768 -0 0 15:0.00503624 17:-0.935134 18:-0.902122 19:-0.969351 21:-0.935602 22:-1 23:-1 24:-1 25:-1 26:-1 27:0.982609 
-1.713796167097296 -4.081220412921407 -0 0 15:-0.143103 17:-0.942225 18:-0.79891 19:-0.996436 21:-0.991856 22:-0.997889 23:-1 24:-1 25:1 26:-0.996273 27:0.996273 
-0 -0 -14.87284499743015 0 15:-0.145068 17:-0.945563 18:-0.738721 19:-0.998481 21:-0.995181 22:-0.986029 23:-1 24:-1 25:-0.444444 26:-0.983946 27:0.983946 
-0 -0 -0 79.27570710388284 15:0.00429923 17:-0.93722 18:-0.675356 19:-0.964349 21:-0.90337 22:-0.954762 23:-1 24:-1 25:-0.969411 26:-0.981404 27:0.981404 
-7683.235580605002 -0 -4070.094198003423 0 15:-0.147525 17:-0.942225 18:-0.97845 19:-0.99958 21:-0.996227 22:-0.947222 23:-1 24:-1 25:-0.888889 26:-0.982609 27:0.982609 
-2497.794845206889 -0 -0 0 15:-0.0780002 17:-0.991031 18:-0.978265 19:-0.998676 21:-0.998875 22:-1 23:-1 24:-1 25:-1 26:-1 27:0.982609 
-0 -0 -0 726.3449512933011 15:-0.0772632 17:-0.953488 18:-0.608686 19:-0.99958 21:-0.996983 22:-0.902564 23:-1 24:-1 25:-0.91358 26:-0.982609 27:0.982609 
-0 -3044.645114211189 -0 0 15:-0.174794 17:-0.991866 18:-0.604429 19:-0.996145 21:-0.997343 22:-1 23:-0.536051 24:-1 25:-1 26:-1 27:0.982609 
-0 -0 -3946.591988077215 0 15:-0.114114 17:-0.883408 18:-0.563893 19:-0.997592 21:-0.977636 22:-0.996863 23:-1 24:-1 25:-0.944444 26:-0.983946 27:0.983946 
-0 -0 -0 21.9064748945051 15:-0.0663309 17:-0.972051 18:-0.550226 19:-0.992077 21:-0.98418 22:-1 23:-0.536051 24:-1 25:-1 26:-1 27:0.982609 
-0 -0 -134.4438448866717 0 15:-0.0664538 17:-0.974763 18:-0.546 19:-0.99958 21:-0.998412 22:-0.894444 23:-1 24:-1 25:-0.979798 26:-0.982609 27:0.982609 
-0 -0 -584.543220439972 0 15:-0.114114 17:-0.885911 18:-0.542946 19:-0.996417 21:-0.969643 22:-1 23:-0.886781 24:-1 25:-1 26:-1 27:0.982609 
-0 -2513.986238642495 -0 0 15:0.00503624 17:-0.935968 18:-0.960866 19:-0.98349 21:-0.929723 22:-0.966038 23:-1 24:-1 25:-0.972016 26:-0.982652 27:0.982652 
-0 -1095.636494653307 -0 0 15:-0.114114 17:-0.893837 18:-0.717055 19:-0.951844 21:-0.836348 22:-1 23:-0.565263 24:-1 25:-1 26:-1 27:0.982609 
-0 -535.8577269356307 -0 0 15:-0.114114 17:-0.893837 18:-0.73214 19:-0.98301 21:-0.941374 22:-1 23:-0.617362 24:-1 25:-1 26:-1 27:0.982609 
-0 -32768 -0 0 15:0.00503624 17:-0.935968 18:-0.921901 19:-0.970087 21:-0.93789 22:-0.963297 23:-1 24:-1 25:-0.970715 26:-0.982831 27:0.982831 
-0 -0 -0 8.273759053177365 15:0.00429923 17:-0.93722 18:-0.569338 19:-0.95225 21:-0.90337 22:-0.954212 23:-1 24:-1 25:-0.969778 26:-0.981525 27:0.981525 
-0 -4315.555080135396 -0 0 15:-0.111657 17:-0.871311 18:-0.800585 19:-0.936925 21:-0.85216 22:-0.989096 23:-1 24:-1 25:-0.990232 26:-0.983104 27:0.983104 
-1.26120828349954 -2.963752360520735 -0 0 15:-0.111657 17:-0.871311 18:-0.707007 19:-0.992777 21:-0.981932 22:-0.999032 23:-1 24:-1 25:1 26:-0.998727 27:0.998727 
-0 -4643.78844022056 -0 0 15:-0.111657 17:-0.871311 18:-0.608583 19:-0.932192 21:-0.841162 22:-1 23:-1 24:-1 25:-1 26:-1 27:1 
-4576.037393974927 -0 -0 0 15:0.0160914 17:-0.939723 18:-0.943805 19:-0.991199 21:-0.989754 22:-1 23:-1 24:-1 25:-1 26:-1 27:1 
-7549.068617236886 -0 -0 0 15:0.0153544 17:-0.941391 18:-0.931313 19:-0.97416 21:-0.971626 22:-0.978311 23:-1 24:-1 25:-0.968254 26:-0.981174 27:0.981174 
-0 -2694.07061195445 -0 0 15:0.0160914 17:-0.943894 18:-0.814368 19:-0.931246 21:-0.928345 22:-1 23:-0.536051 24:-1 25:-1 26:-1 27:0.982609 
-0 -133.3605643686975 -0 0 15:0.0160914 17:-0.939723 18:-0.702053 19:-0.772527 21:-0.747036 22:-0.982901 23:-0.783106 24:-1 25:-0.979964 26:-0.982368 27:0.982368 
-4.548491014741188 -0 -0 0 15:-0.114359 17:-0.892168 18:-0.783325 19:-0.929826 21:-0.748759 22:-0.99245 23:-0.674367 24:-1 25:-0.962617 26:-0.982049 27:0.982049 
-0 -0 -438.1215736664016 0 15:-0.114728 17:-0.882782 18:-0.6823 19:-0.937987 21:-0.758765 22:-0.997943 23:-1 24:-1 25:-0.960317 26:-0.998004 27:0.998004 
-0 -632.4451722225468 -734.6873690316783 0 15:-0.114114 17:-0.889665 18:-0.842746 19:-0.932428 21:-0.763847 22:-1 23:-0.780553 24:-1 25:-1 26:-1 27:1 
-0 -1772.805941661045 -0 0 15:0.00429923 17:-0.93722 18:-0.569327 19:-0.952263 21:-0.90337 22:-0.953114 23:-1 24:-1 25:-0.970486 26:-0.981188 27:0.981188 
-0 -0 -0 38.51140236481962 15:-0.114114 17:-0.889665 18:-0.747564 19:-0.996224 21:-0.980088 22:-1 23:-0.8969 24:-1 25:-1 26:-1 27:0.982609 
-0 -11713.80084692766 -0 0 15:-0.174794 17:-0.991866 18:-0.660514 19:-0.993726 21:-0.997343 22:-1 23:-0.536051 24:-1 25:-1 26:-1 27:0.982609 
-0 -31709.77661898326 -39.92081498313325 0 15:-0.114728 17:-0.882782 18:-0.639391 19:-0.977905 21:-0.890551 22:-0.996118 23:-1 24:-1 25:-0.972222 26:-0.997296 27:0.997296 
-0 -3440.123502449059 -0 0 15:0.00503624 17:-0.935968 18:-0.925718 19:-0.96832 21:-0.929723 22:-0.965283 23:-1 24:-1 25:-0.972625 26:-0.982222 27:0.982222 
-0 -35.72021616577932 -0 0 15:-0.115342 17:-0.997289 18:-0.79011 19:-0.998507 21:-0.999589 22:-1 23:-1 24:-1 25:-1 26:-1 27:0.982609 
-0 -32768 -3369.840639338878 0 15:-0.115342 17:-0.879237 18:-0.744869 19:-0.988973 21:-0.910716 22:-1 23:-1 24:-1 25:-1 26:-1 27:0.982609 
-0 -7286.656316990317 -0 0 15:-0.174549 17:-0.979768 18:-0.707854 19:-0.990952 21:-0.986644 22:-1 23:-1 24:-1 25:-1 26:-1 27:0.982609 
-0 -6646.605820287897 -0 0 15:0.011178 17:-0.939723 18:-0.805487 19:-0.996078 21:-0.982399 22:-1 23:-1 24:-1 25:-1 26:-1 27:1 
-0 -22.54417216848961 -0 0 15:0.0113008 17:-0.939931 18:-0.605432 19:-0.997877 21:-0.98944 22:-1 23:-1 24:-1 25:-1 26:-1 27:1 
-32768 -0 -0 0 15:0.0354993 17:-0.98102 18:-0.939154 19:-0.997607 21:-0.996213 22:-1 23:-1 24:-1 25:-1 26:-1 27:1 
-0 -0 -1780.238027710129 0 15:-0.115342 17:-0.879237 18:-0.931075 19:-0.988533 21:-0.907272 22:-1 23:-0.789397 24:-1 25:-1 26:-1 27:1 
-0.02732783848756461 -0 -0 0 15:-0.110183 17:-0.887997 18:-0.903504 19:-0.99743 21:-0.97723 22:-0.99923 23:-1 24:-1 25:0.333333 26:-0.994783 27:0.994783 
-2775.488160503192 -0 -0 0 15:-0.115342 17:-0.879237 18:-0.886145 19:-0.998508 21:-0.98373 22:-0.984972 23:-1 24:-1 25:-0.920635 26:-0.985953 27:0.985953 
-11.98178895447822 -0 -0 0 15:-0.168161 17:-0.968923 18:-0.880502 19:-0.991678 21:-0.981582 22:-1 23:-0.536051 24:-1 25:-1 26:-1 27:0.982609 
-2.502171021152841 -5.94447130498605 -0 0 15:-0.168161 17:-0.968923 18:-0.876699 19:-0.998508 21:-0.995778 22:0.238958 23:-1 24:-1 25:-0.969471 26:-0.533416 27:0.533416 
-0 -1380.238125455931 -0 0 15:-0.0966712 17:-0.927208 18:-0.87995 19:-0.999587 21:-0.995218 22:-0.876852 23:-1 24:-1 25:-0.980952 26:-0.976885 27:0.976885 
-8980.809803778788 -0 -0 0 15:-0.0918806 17:-0.919074 18:-0.877098 19:-0.996441 21:-0.978368 22:-0.960284 23:-1 24:-1 25:-0.986395 26:-0.981739 27:0.981739 
-0 -0 -5897.540828855314 0 15:-0.115342 17:-0.879237 18:-0.838915 19:-0.997969 21:-0.979597 22:-0.991412 23:-1 24:-1 25:-0.911111 26:-0.991718 27:0.991718 
-0 -79.44709251338061 -4.002415875643025 0 15:-0.115342 17:-0.879237 18:-0.836186 19:-0.99716 21:-0.973398 22:-1 23:-0.547947 24:-1 25:-1 26:-1 27:0.982609 
-0 -26473.88415014975 -0 0 15:-0.101462 17:-0.901137 18:-0.831555 19:-0.99078 21:-0.937977 22:-1 23:-1 24:-1 25:-1 26:-1 27:0.982609 
-0 -0 -32768 0 15:-0.115342 17:-0.879237 18:-0.825237 19:-0.999407 21:-0.990618 22:-1 23:-1 24:-1 25:-1 26:-1 27:1 
-0 -214.9687896032022 -0 0 15:0.011178 17:-0.939723 18:-0.649444 19:-0.979277 21:-0.916904 22:-0.992336 23:-0.695899 24:-1 25:-0.950617 26:-0.983808 27:0.983808 
-0 -1.017752330882058 -0 0 15:0.011178 17:-0.939723 18:-0.616966 19:-0.974154 21:-0.89694 22:-0.916872 23:-1 24:-1 25:-0.949954 26:-0.883092 27:0.883092 
-108.1012996320724 -32541.72475403199 -70.26153411961315 0 15:-0.0514679 17:-0.971008 18:-0.985039 19:-0.99753 21:-0.994132 22:-1 23:-0.536051 24:-1 25:-1 26:-1 27:0.982609 
-0 -289.6672831343322 -0 0 15:-0.115342 17:-0.879237 18:-0.755405 19:-0.992602 21:-0.938268 22:-1 23:-0.685458 24:-1 25:-1 26:-1 27:0.982609 
-2.022054630364236 -4.791402033473173 -0 0 15:-0.168161 17:-0.968923 18:-0.692424 19:-0.998515 21:-0.995778 22:0.575417 23:-1 24:-1 25:-0.975991 26:-0.406708 27:0.406708 
-0 -28091.71106963356 -3234.202321326191 0 15:-0.115342 17:-0.879237 18:-0.631767 19:-0.997978 21:-0.979597 22:-0.98626 23:-1 24:-1 25:-0.944444 26:-0.987902 27:0.987902 
-0 -0 -3968.317833996894 0 15:-0.174549 17:-0.979768 18:-0.626937 19:-0.99099 21:-0.986644 22:-1 23:-1 24:-1 25:-1 26:-1 27:0.982609 
-0 -12924.3930014275 -0 0 15:-0.102076 17:-0.90218 18:-0.626906 19:-0.991079 21:-0.9403 22:-1 23:-1 24:-1 25:-1 26:-1 27:0.982609 
-0 -1.935946142811166 -0 0 15:-0.121361 17:-0.97372 18:-0.622167 19:-0.998336 21:-0.996103 22:-1 23:-1 24:-0.9 25:-1 26:-1 27:0.982609 
-0 -0 -86.81685960725412 0 15:-0.170618 17:-0.990614 18:-0.843761 19:-0.99743 21:-0.997908 22:-0.99246 23:-1 24:-1 25:-0.777778 26:-0.994783 27:0.994783 
-0.6490323650950709 -1.529497769577688 -0 0 15:-0.168161 17:-0.968923 18:-0.819165 19:-0.998508 21:-0.995778 22:0.575417 23:-1 24:-1 25:-0.975991 26:-0.406708 27:0.406708 
-0 -32768 -0 0 15:-0.174549 17:-0.979768 18:-0.753472 19:-0.99096 21:-0.986644 22:-1 23:-1 24:-1 25:-1 26:-1 27:0.982609 
-0 -0 -32768 0 15:-0.101462 17:-0.901137 18:-0.753442 19:-0.991049 21:-0.939675 22:-1 23:-1 24:-1 25:-1 26:-1 27:1 
-0 -0 -15759.74657014155 0 15:-0.115342 17:-0.879237 18:-0.747032 19:-0.999407 21:-0.990618 22:-1 23:-1 24:-1 25:-1 26:-1 27:1 
-0 -78.51286219851914 -0 0 15:0.011178 17:-0.939723 18:-0.649444 19:-0.979277 21:-0.916904 22:-0.992336 23:-0.695899 24:-1 25:-0.950617 26:-0.983808 27:0.983808 
-0 -152.0488617150651 -0 0 15:0.011178 17:-0.939723 18:-0.616966 19:-0.974154 21:-0.89694 22:-0.916872 23:-1 24:-1 25:-0.949954 26:-0.883092 27:0.883092 
-3374.195716093599 -0 -0 0 15:-0.111289 17:-0.890291 18:-0.926048 19:-0.998417 21:-0.984588 22:-0.947918 23:-0.994609 24:-1 25:-0.975845 26:-0.979487 27:0.979487 
-0 -0 -19440.799177129 0 15:-0.140892 17:-0.964751 18:-0.913618 19:-0.998507 21:-0.995218 22:-1 23:-1 24:-1 25:-1 26:-1 27:0.982609 
-0 -0 -16800.17859565175 0 15:-0.072227 17:-0.965377 18:-0.917516 19:-0.996438 21:-0.990549 22:-1 23:-1 24:-1 25:-1 26:-1 27:0.982609 
-0 -32768 -0 0 15:-0.115342 17:-0.879237 18:-0.868376 19:-0.988973 21:-0.910716 22:-1 23:-1 24:-1 25:-1 26:-1 27:0.982609 
-0 -0 -32768 0 15:-0.115342 17:-0.879237 18:-0.824916 19:-0.999406 21:-0.990618 22:-1 23:-1 24:-1 25:-1 26:-1 27:1 
-0 -362.2975465982913 -0 0 15:0.011178 17:-0.939723 18:-0.805487 19:-0.996078 21:-0.982399 22:-1 23:-1 24:-1 25:-1 26:-1 27:1 
-0 -48.05454161510595 -0 0 15:0.0113008 17:-0.939931 18:-0.605432 19:-0.997877 21:-0.98944 22:-1 23:-1 24:-1 25:-1 26:-1 27:1 
-0 -0 -5542.328632636372 0 15:-0.0756664 17:-0.989154 18:-0.884582 19:-0.998866 21:-0.99879 22:-1 23:-1 24:-1 25:-1 26:-1 27:1 
-0 -0 -32768 0 15:-0.115342 17:-0.879237 18:-0.795635 19:-0.999406 21:-0.990618 22:-1 23:-1 24:-1 25:-1 26:-1 27:1 
-0 -9.434062267424682 -0 0 15:0.0113008 17:-0.939931 18:-0.605432 19:-0.997877 21:-0.98944 22:-1 23:-1 24:-1 25:-1 26:-1 27:1 
-0 -0 -29474.50447258553 0 15:-0.0756664 17:-0.989154 18:-0.905118 19:-0.998861 21:-0.99879 22:-1 23:-1 24:-1 25:-1 26:-1 27:1 
-0 -0 -32768 0 15:-0.136838 17:-0.915737 18:-0.886588 19:-0.99814 21:-0.986695 22:-1 23:-1 24:-1 25:-1 26:-1 27:1 
-0 -8825.068215956535 -0 0 15:-0.174549 17:-0.979768 18:-0.788704 19:-0.990924 21:-0.986644 22:-1 23:-1 24:-1 25:-1 26:-1 27:0.982609 
-0 -0 -32768 0 15:-0.115342 17:-0.879237 18:-0.78224 19:-0.999402 21:-0.990618 22:-1 23:-1 24:-1 25:-1 26:-1 27:1 
-0 -4817.292628561648 -0 0 15:0.011178 17:-0.939723 18:-0.800647 19:-0.991826 21:-0.965938 22:-0.933306 23:-1 24:-1 25:-0.993109 26:-0.976048 27:0.976048 
-2189.876962288921 -26665.56757601613 -32768 0 15:-0.11657 17:-0.881322 18:-0.875804 19:-0.998147 21:-0.981302 22:-1 23:-1 24:-1 25:-1 26:-1 27:1 
-0 -7750.946063883318 -1110.04659730496 0 15:-0.115342 17:-0.997289 18:-0.719946 19:-0.998507 21:-0.999589 22:-1 23:-1 24:-1 25:-1 26:-1 27:0.982609 
-0 -3.085638403310563 -0 0 15:-0.163371 17:-0.97372 18:-0.632902 19:-0.998327 21:-0.996103 22:-1 23:-1 24:-0.904762 25:-1 26:-1 27:0.982609 
-0 -5779.367755406811 -0 0 15:0.011178 17:-0.939723 18:-0.805487 19:-0.996078 21:-0.982399 22:-1 23:-1 24:-1 25:-1 26:-1 27:1 
-0 -2082.7852286339 -0 0 15:0.0113008 17:-0.939931 18:-0.605432 19:-0.997877 21:-0.98944 22:-1 23:-1 24:-1 25:-1 26:-1 27:1 
-0 -0 -32768 0 15:-0.0766491 17:-0.989154 18:-0.904778 19:-0.998866 21:-0.99879 22:-1 23:-1 24:-1 25:-1 26:-1 27:1 
-0 -0 -32768 0 15:-0.136838 17:-0.915737 18:-0.886301 19:-0.998147 21:-0.986695 22:-1 23:-1 24:-1 25:-1 26:-1 27:1 
-0 -32768 -0 0 15:-0.115342 17:-0.879237 18:-0.859291 19:-0.988973 21:-0.910716 22:-1 23:-1 24:-1 25:-1 26:-1 27:0.982609 
-0 -0 -32768 0 15:-0.115342 17:-0.879237 18:-0.815831 19:-0.999406 21:-0.990618 22:-1 23:-1 24:-1 25:-1 26:-1 27:1 
-0 -2304.068572956177 -0 0 15:0.011178 17:-0.939723 18:-0.805487 19:-0.996078 21:-0.982399 22:-1 23:-1 24:-1 25:-1 26:-1 27:1 
-0 -1064.114348989917 -0 0 15:0.0113008 17:-0.939931 18:-0.605432 19:-0.997877 21:-0.98944 22:-1 23:-1 24:-1 25:-1 26:-1 27:1 
-0 -29986.03905589899 -0 0 15:-0.0509765 17:-0.996871 18:-0.96911 19:-0.998327 21:-0.999472 22:-1 23:-1 24:-1 25:-1 26:-1 27:0.982609 
-2880.877111657641 -1652.083009828509 -59.21030807947967 0 15:-0.177742 17:-0.985191 18:-0.945446 19:-0.995179 21:-0.994422 22:-1 23:-1 24:-1 25:-1 26:-1 27:1 
-1.401083800443135 -0 -0 0 15:-0.0721042 17:-0.994786 18:-0.933599 19:-0.999316 21:-0.999631 22:-0.408889 23:-1 24:-1 25:-0.94709 26:-0.878261 27:0.878261 
-0 -0 -16311.05884401 0 15:-0.0950743 17:-0.971634 18:-0.933599 19:-0.999316 21:-0.997687 22:-0.931066 23:-1 24:-1 25:-0.955556 26:-0.988142 27:0.988142 
-0 -2773.671353422446 -0 0 15:-0.115833 17:-0.880071 18:-0.81003 19:-0.984926 21:-0.880537 22:-0.979546 23:-1 24:-1 25:-0.979066 26:-0.985396 27:0.985396 
-0 -139.8688933786196 -0 0 15:0.011178 17:-0.939723 18:-0.805487 19:-0.996078 21:-0.982399 22:-1 23:-1 24:-1 25:-1 26:-1 27:1 
-0 -25087.85758522074 -0 0 15:0.0113008 17:-0.939931 18:-0.605432 19:-0.997877 21:-0.98944 22:-1 23:-1 24:-1 25:-1 26:-1 27:1 
-0 -126.3006368618731 -0 0 15:-0.115833 17:-0.880071 18:-0.857051 19:-0.984926 21:-0.880537 22:-0.983844 23:-1 24:-1 25:-0.977574 26:-0.986395 27:0.986395 
-0 -0 -32768 0 15:-0.115342 17:-0.879237 18:-0.791092 19:-0.999406 21:-0.990618 22:-1 23:-1 24:-1 25:-1 26:-1 27:1 
-0 -1012.307160364765 -0 0 15:0.011178 17:-0.939723 18:-0.805487 19:-0.996078 21:-0.982399 22:-1 23:-1 24:-1 25:-1 26:-1 27:1 
-0 -252.1621962300571 -0 0 15:0.0113008 17:-0.939931 18:-0.605432 19:-0.997877 21:-0.98944 22:-1 23:-1 24:-1 25:-1 26:-1 27:1 
-0 -32768 -0 0 15:-0.115342 17:-0.879237 18:-0.655983 19:-0.999406 21:-0.990618 22:-1 23:-1 24:-1 25:-1 26:-1 27:1 
-0 -4230.755967758499 -0 0 15:0.011178 17:-0.939723 18:-0.805487 19:-0.996078 21:-0.982399 22:-1 23:-1 24:-1 25:-1 26:-1 27:1 
-0 -32768 -0 0 15:0.011178 17:-0.939723 18:-0.690543 19:-0.978181 21:-0.912701 22:-1 23:-1 24:-1 25:-1 26:-1 27:0.982609 
-0 -1318.582551094012 -0 0 15:0.0113008 17:-0.939931 18:-0.605432 19:-0.997877 21:-0.98944 22:-1 23:-1 24:-1 25:-1 26:-1 27:1 
-0 -0 -1300.641261243123 0 15:-0.130819 17:-0.897174 18:-0.881972 19:-0.995359 21:-0.984963 22:-0.983761 23:-1 24:-1 25:-0.857143 26:-0.9912 27:0.9912 
-0 -10524.30352000811 -0 0 15:-0.114728 17:-0.869851 18:-0.68807 19:-0.941688 21:-0.748945 22:-0.989197 23:-0.743957 24:-1 25:-0.963689 26:-0.983841 27:0.983841 
-0 -0 -27845.04582539093 0 15:-0.146051 17:-0.923037 18:-0.863 19:-0.995801 21:-0.988727 22:-1 23:-1 24:-1 25:-1 26:-1 27:1 
-0 -0 -32768 0 15:-0.062523 17:-0.956408 18:-0.863 19:-0.995801 21:-0.993584 22:-1 23:-1 24:-1 25:-1 26:-1 27:1 
-0 -32768 -0 0 15:-0.114114 17:-0.868808 18:-0.710206 19:-0.971682 21:-0.894161 22:-1 23:-1 24:-1 25:-1 26:-1 27:0.982609 
-0 -6049.216300634337 -0 0 15:-0.173075 17:-0.968923 18:-0.679489 19:-0.973111 21:-0.975044 22:-1 23:-0.536051 24:-1 25:-1 26:-1 27:0.982609 
-0 -32768 -0 0 15:-0.173075 17:-0.968923 18:-0.671896 19:-0.995359 21:-0.995405 22:-1 23:-1 24:-1 25:-1 26:-1 27:0.982609 
-0 -7306.545898783222 -0 0 15:-0.114114 17:-0.868808 18:-0.589664 19:-0.959751 21:-0.84933 22:-0.985538 23:-1 24:-1 25:-0.985547 26:-0.981014 27:0.981014 
-0 -32768 -3608.56134200107 0 15:-0.114114 17:-0.868808 18:-0.853831 19:-0.983914 21:-0.943475 22:-1 23:-1 24:-1 25:-1 26:-1 27:0.982609 
-0 -0 -32768 0 15:-0.062523 17:-0.956408 18:-0.844654 19:-0.994934 21:-0.993584 22:-1 23:-1 24:-1 25:-1 26:-1 27:1 
-0 -5056.301498869643 -0 0 15:-0.173075 17:-0.968923 18:-0.750779 19:-0.994934 21:-0.995405 22:-1 23:-1 24:-1 25:-1 26:-1 27:0.982609 
-0 -7123.47121733786 -0 0 15:-0.114114 17:-0.868808 18:-0.753111 19:-0.953716 21:-0.841111 22:-0.987735 23:-1 24:-1 25:-0.983838 26:-0.982009 27:0.982009 
-0 -348.453288497651 -0 0 15:-0.187078 17:-0.998957 18:-0.605401 19:-0.997283 21:-0.999813 22:-1 23:-0.922675 24:-1 25:-1 26:-1 27:0.982609 
-0 -16917.06742839207 -0 0 15:-0.1135 17:-0.869851 18:-0.571541 19:-0.972196 21:-0.850509 22:-0.985069 23:-1 24:-1 25:-0.985891 26:-0.982185 27:0.982185 
-0 -16717.86630670335 -0 0 15:0.0125292 17:-0.934091 18:-0.972429 19:-0.994887 21:-0.984609 22:-1 23:-1 24:-1 25:-1 26:-1 27:1 
-43.11265211443561 -0 -0 0 15:0.0125292 17:-0.933674 18:-0.944918 19:-0.930056 21:-0.807827 22:-0.984508 23:-0.772007 24:-1 25:-0.978836 26:-0.982539 27:0.982539 
-0 -0 -136.7714067930187 0 15:-0.114728 17:-0.869851 18:-0.676729 19:-0.945631 21:-0.748945 22:-0.989973 23:-0.743957 24:-1 25:-0.960876 26:-0.984203 27:0.984203 
-2356.120530008026 -0 -2965.853783496548 0 15:-0.12173 17:-0.953071 18:-0.960267 19:-0.995029 21:-0.993373 22:-1 23:-0.979869 24:-1 25:-1 26:-1 27:1 
-0 -0 -1319.062465280703 0 15:-0.0686648 17:-0.982271 18:-0.960036 19:-0.99796 21:-0.998917 22:-0.934028 23:-1 24:-1 25:-0.822222 26:-0.993135 27:0.993135 
-22163.15785593334 -0 -0 0 15:-0.0432379 17:-0.984983 18:-0.960036 19:-0.997509 21:-0.998905 22:-1 23:-1 24:-1 25:-1 26:-1 27:1 
-0 -0 -32768 0 15:-0.140278 17:-0.961623 18:-0.881247 19:-0.996156 21:-0.995708 22:-1 23:-1 24:-1 25:-1 26:-1 27:1 
-3.312100746246617 -7.552934810638177 -0 0 15:1 17:1 18:-0.874476 19:-0.992549 21:-0.596781 22:-0.98663 23:-1 24:-1 25:-0.98538 26:-0.982298 27:0.982298 
-0 -242.6637418584461 -0 0 15:-0.185112 17:-0.998957 18:-0.864166 19:-0.994352 21:-0.999738 22:-1 23:-1 24:-1 25:-1 26:-1 27:1 
-0 -0 -32768 0 15:-0.107972 17:-0.998957 18:-0.868475 19:-0.994352 21:-0.999738 22:-1 23:-1 24:-1 25:-1 26:-1 27:1 
-0 -0 -32768 0 15:-0.107972 17:-0.998957 18:-0.864166 19:-0.994352 21:-0.999738 22:-1 23:-1 24:-1 25:-1 26:-1 27:1 
-0 -0 -2615.684538160284 0 15:-0.107972 17:-0.998957 18:-0.859857 19:-0.994352 21:-0.999738 22:-1 23:-1 24:-1 25:-1 26:-1 27:1 
-890.6272686882085 -0 -0 0 15:0.0109323 17:-0.93722 18:-0.959036 19:-0.944074 21:-0.908834 22:-0.984666 23:-1 24:-1 25:-0.966245 26:-0.982682 27:0.982682 
-0 -17267.31612639007 -0 0 15:0.0109323 17:-0.93722 18:-0.923181 19:-0.963013 21:-0.939431 22:-1 23:-0.548615 24:-1 25:-1 26:-1 27:0.982609 
-0 -1926.125586891805 -0 0 15:0.0109323 17:-0.941808 18:-0.830465 19:-0.942045 21:-0.912234 22:-0.954844 23:-1 24:-1 25:-0.990079 26:-0.982048 27:0.982048 
-0 -32768 -0 0 15:0.0109323 17:-0.937637 18:-0.679042 19:-0.971355 21:-0.953212 22:-1 23:-1 24:-1 25:-1 26:-1 27:0.982609 
-0 -31205.22484602065 -0 0 15:0.0109323 17:-0.937637 18:-0.645418 19:-0.965268 21:-0.94344 22:-1 23:-1 24:-1 25:-1 26:-1 27:0.982609 
-0 -13502.78248773806 -0 0 15:0.0109323 17:-0.941808 18:-0.573631 19:-0.947907 21:-0.921037 22:-0.955202 23:-1 24:-1 25:-0.976667 26:-0.983278 27:0.983278 
-0 -32768 -0 0 15:-0.173075 17:-0.968923 18:-0.625219 19:-0.995801 21:-0.995405 22:-1 23:-1 24:-1 25:-1 26:-1 27:0.982609 
-0 -28111.79716765819 -0 0 15:0.0125292 17:-0.934091 18:-0.54879 19:-0.9668 21:-0.931162 22:-0.97586 23:-1 24:-1 25:-0.973995 26:-0.983431 27:0.983431 
-0 -0 -0 -1015.328009264217 15:-0.0698931 17:-0.98102 18:-0.534793 19:-0.998155 21:-0.998833 22:-0.900654 23:-1 24:-1 25:-0.944444 26:-0.983304 27:0.983304 
-0 -0 -0 -1462.265231971008 15:-0.0698931 17:-0.793722 18:-0.536362 19:-0.995676 21:-0.895189 22:-1 23:-1 24:-1 25:-1 26:-1 27:0.982609 
-0 -0 -0 -154.0855988398486 15:-0.0698931 17:-0.793722 18:-0.535643 19:-0.993569 21:-0.850824 22:-0.994063 23:-1 24:-1 25:-0.951111 26:-0.982724 27:0.982724 
-0 -15148.37940694682 -0 -0 15:-0.0698931 17:-0.793722 18:-0.549674 19:-0.985102 21:-0.895189 22:-1 23:-1 24:-1 25:-1 26:-1 27:0.982609 
-0 -32768 -0 -0 15:-0.0698931 17:-0.793722 18:-0.549674 19:-0.985102 21:-0.895189 22:-1 23:-1 24:-1 25:-1 26:-1 27:0.982609 
-0 -32768 -0 -0 15:-0.0698931 17:-0.793722 18:-0.549674 19:-0.985102 21:-0.895189 22:-1 23:-1 24:-1 25:-1 26:-1 27:0.982609 
-0 -32768 -0 -0 15:-0.0698931 17:-0.793722 18:-0.549674 19:-0.985102 21:-0.895189 22:-1 23:-1 24:-1 25:-1 26:-1 27:0.982609 
-0 -0 -0 -19441.71174779827 15:-0.0698931 17:-0.797893 18:-0.533558 19:-0.995571 21:-0.954496 22:-1 23:-1 24:-1 25:-1 26:-1 27:1 
-0 -0 -0 -214.3699414295513 15:-0.086353 17:-0.872979 18:-0.530994 19:-0.9985 21:-0.987956 22:-0.930778 23:-1 24:-1 25:-0.986111 26:-0.983415 27:0.983415 
